solver_type L2R_L2LOSS_SVC
nr_class 2
label 0 1
nr_feature 15920
bias -1.000000000000000
w
0.4998346036877512 
0.01066212748178304 
0.06464269713316846 
1.293463747363446 
0.06035908800287982 
0.05375078581204722 
-0.001798823883171808 
-0.0007349155454498868 
-0.4753191194893887 
0.3348328051797445 
-0.1345394776237820 
-0.08253551542263583 
0.7726665938382956 
0.1205896958691277 
-0.1011361275932384 
0.1028356569972757 
-0.03192272666867339 
-0.04133243352594970 
-0.1918043664656089 
-0.2540919277331573 
0.1299821909954454 
0.02547124169695470 
0.1338403568825775 
0.1578353066246919 
-0.06012314874346367 
0.01392984059375010 
-0.3497739093742606 
0.07744351211974373 
0.7060413377499533 
0.03981115833001375 
0.03765154273587382 
0.1189143274670248 
0.2962371795517156 
-0.04727436783476635 
-0.01468324837283629 
0.2004161817580224 
0.001242018020698837 
0.2734435571230182 
0.1317207007221743 
0.2955130256687449 
-0.1320297448431851 
0.01948587241831205 
0.1060131523309590 
0.07525957216860496 
-0.4559029848244881 
0.1642813352166462 
0.4973948741031560 
0.1747258476193003 
0.2304444418826976 
-0.08094938035698786 
0.09590036982519295 
-0.9489038924505583 
0.05505342527540952 
-0.2704413407873755 
-0.01009722463820829 
-0.07941290200298246 
0.1485824530934935 
-0.05619326399972543 
-0.1627110707573745 
-0.5150359338440494 
0.02646141698869548 
-0.2843851528275433 
0.3205492960619986 
0.05247081480029421 
-0.2842387251996106 
-0.6981280632834144 
0.06455367863601053 
0.05112275572120013 
-0.05815378941081457 
-0.04713503964430948 
0.1521694051201956 
0.09142745824480164 
-0.2878147755123828 
0.9521688696773819 
-0.04111345860724605 
0.2181334199824252 
0.03227084188363758 
-0.05582468273576732 
-0.03964737029395343 
0.005101100011658477 
-0.02503936107114643 
0.1814112769961120 
0.3981470133185490 
0.004120105487659980 
-0.03417907194455137 
0.3018626136496445 
-0.05443527744681079 
0.09782133216659637 
-0.2623540180886195 
0.09798628516996254 
0.4994430563829608 
0.09812637188703200 
0.2548595180487806 
-0.07622859207635875 
0.03790192245719828 
-0.02235405845741601 
-0.2744890004311343 
-0.04223876661424239 
-0.2069281197950164 
-0.004720707368724376 
-0.6624572568007104 
0.1193094424253093 
0.03525599637697776 
0.2581715725641582 
0.5456157884635561 
-0.05481243871144570 
0.04674074864979923 
0.1099803399893286 
-0.01472820839097867 
0.09304609606105986 
0.02456844872943252 
0.3005350694106200 
-0.06938899997856837 
-0.5559438888775451 
-0.5842422907544437 
0.02055458304777472 
0.3070720978684456 
0.2060118805741736 
0.1073477279758051 
0.6812557657937750 
0.1628414432094675 
-0.1531682161718658 
0.3339260757946838 
0.3339260757946838 
0.08882698589276397 
-0.1862065674316525 
-0.2567390412872397 
0.3726297587597167 
0.1733267836551004 
-0.1649522228242874 
-0.1406605025563296 
0.005334865599432703 
0.0007093664827531329 
-0.5598562500825315 
-0.4357680681374244 
-0.04745366602510170 
0.4050938984026179 
0.1496121282954677 
-0.4617706335359340 
-0.02131727010760458 
0.6972539240923021 
-0.05660633567982563 
0.2866604104498695 
-0.2714290871271123 
0.09423995432458901 
-0.0003449280000742371 
-0.3468310532004795 
-0.02202143033058223 
0.2653383011659875 
0.05325254884469742 
0.3459063927851945 
0.1845331857762268 
0.1845331857762268 
-0.2040776223309523 
-0.003776085253441096 
0.09383359157383986 
-0.2206004480849546 
0.1410559451821375 
-0.04208306333157048 
0.07651764295657400 
0.05526341124026231 
0.1738619120492000 
-0.04259124668657558 
0.3753915363739037 
-0.08641354091174906 
0.6361236218359306 
-0.03266505740464339 
-0.1832870400593956 
-0.1208706133580102 
-0.1213343955682402 
0.1160025073485173 
0.3736416629525436 
0.1257188694524829 
0.01172680956154974 
0.3843296288399363 
-0.1030905380447720 
0.1530330396444821 
0.09370675338143143 
0.2583172308134846 
-0.07722762120064386 
-0.001007873129365853 
-0.2384250210536187 
-0.07198537339793551 
0.3301723273072924 
-0.06403035245884696 
-0.5066273106474807 
0.04709635085426844 
0.4115567538916160 
-0.5866110378893578 
-0.7576080694694575 
0.6828780429111818 
0.2034706817629053 
0.7476020847025552 
-0.06020980946549051 
-0.07629643272019325 
0.1496365375093831 
0.3473506174003578 
-0.06841657740966281 
0.04926156310115856 
-0.1944324678852665 
0.2015687092341665 
0.6652333884227999 
0.5818799522031123 
0.03950885055122778 
-0.0004395296358646579 
-0.04149013059360868 
0.3663592031033511 
0.2262042134948498 
-0.7636174425881411 
-0.08193844812942473 
-0.4551808781643534 
0.4145884301063887 
0.1590552296239756 
0.4251415341612878 
-0.3734835472731969 
0.5026667561591080 
-0.2250429994219514 
-0.1214605225580164 
0.4994110337959267 
-0.1622728905108119 
-0.3089585656085581 
0.3233687201429871 
-0.04988194523892345 
0.4287103357186742 
-0.5559578222240499 
0.6320725547824169 
-0.6111063127447919 
0.5895136262826091 
-0.002553883956293808 
0.7554944922541803 
-0.05042247097486424 
-0.01970807222171180 
0.2100571526260096 
-0.4211322252168155 
0.1545699560225038 
0.4294221743083681 
-0.009630806337866433 
-0.1984898839129461 
-0.1218719659062418 
-0.04304618973898831 
0.3374864341795943 
-0.3360094817880682 
0.2014639127110472 
-0.008185469866562420 
0.1091264397206761 
0.6473208078504239 
-0.2112579796488640 
-0.1611001993081667 
0.4183204884633485 
0.4183204884633485 
-0.01015244612954162 
0.09815067549809728 
-0.09114802858533176 
0.2949912035287727 
-0.1225298734385206 
0.1904612585808997 
-0.3704685374400919 
0.02181422839133727 
-0.02131878882837627 
0.1413892591912916 
0.07750927133946837 
-0.3758624420498928 
0.2890784902673996 
-0.2087363043897551 
-0.4336049678865048 
0.07361792487962156 
0.5899325995642360 
-0.3032920329831059 
0.5899325995642360 
-0.09938082544058932 
0.3660832555387296 
0.2876037686137327 
-0.2732255302101851 
0.3350376559873769 
0.06782220541169641 
-0.01310134594075578 
-0.1102805867606504 
0.3350376559873769 
0.2225630118149977 
0.3350849135713402 
-0.2515861614559365 
-0.2869126808625904 
-0.08697374916885361 
0.2730734255276102 
0.1157821981485053 
0.1486612717938143 
-0.1420257107376636 
0.4364372217012907 
0.06285959130718474 
0.4015868336512399 
-0.3201766913327924 
-0.3634178475218945 
-0.7209210329025376 
-0.4998314514725183 
-0.1805128415573306 
0.6440358498296875 
0.2997641494887341 
-0.6398785763863346 
-0.2416288376603832 
0.1448807738474396 
0.2709507850680073 
-0.1170917788829023 
-0.06139216473760539 
0.2161901179759682 
0.1448807738474396 
-0.4134724508891877 
0.4795094863869854 
0.6630472373408360 
0.2367139416120402 
-0.06442471865334475 
-0.2429908156305964 
0.4782887298184555 
-0.05543518970544438 
0.3020303487984564 
-0.02559046007409462 
-0.2325716013534211 
-0.4293024733599957 
0.05335719619055384 
-0.5059874573751818 
-0.03455800805112462 
-0.6763482695210506 
-0.05762482976122522 
-0.7372290833749683 
-0.08917935652992030 
-0.4430777310520653 
0.7221128392119438 
-0.3055988915021372 
-0.04406175129106241 
-0.2569000643845441 
0.1728041891405503 
0.03634630159588060 
0.002227768444147348 
-0.08130338878312254 
-0.2222093991246162 
0.2148532540954760 
-0.2202222297003728 
-0.09417468382669834 
0.4739036969928367 
0.05042667424738390 
-0.004491357379927363 
0.1941391741233791 
0.1064870703531415 
0.1302844750298460 
-0.09779140940736944 
0.04346393260087670 
0.2625883652830793 
0.05682094710999273 
-0.006000545009024626 
0.0006679555257999015 
0.002198307601951548 
0.09207811393917292 
0.4009076334498655 
-0.03054341306150086 
0.4579969706292844 
-0.001874786545353346 
-0.1025124177257392 
0.7040694074623204 
-0.2078927879438617 
-0.04615001403000722 
0.5202695188284822 
-0.3433772625273869 
0.2023148229389006 
-0.7563059349496032 
0.5306410933676462 
0.2296248107914351 
0.07149712167876246 
0.3119580409792283 
0.1387349644824749 
0.2943981672208091 
-0.1084853747081341 
-0.01566294736986752 
0.03719298650586696 
0.2230399234627083 
0.2230399234627083 
0.3851000329214831 
-0.1758593363472985 
0.02212679781100322 
0.01320781635172858 
-0.1522909448186426 
0.1709507503451735 
0.6501254330423352 
-0.6245021037677630 
0.7360146209795710 
0.04619268370132670 
0.3319374485744372 
0.4912773431091385 
-0.1467242140560255 
0.3178956135688665 
0.5791214724576258 
-0.0003787193375914782 
0.02447679076910443 
0.1894728089345747 
0.2742535737322226 
0.2742535737322226 
0.3165632900181073 
0.07671883207851725 
-0.9599783122380329 
-0.01237757635231860 
-0.04702330694850382 
0.03548483688390336 
0.7747749777016175 
0.1449367933630911 
-0.3212387918862823 
-0.1030818722278313 
-0.07137115858507777 
-0.008513226958066344 
0.3820771495377567 
0.05975910784373077 
0.2808155707564861 
-0.5024329814849586 
-0.01076960799631404 
0.1115788712686079 
-0.1218217884815079 
-0.001536113741531571 
-0.8313708156334628 
0.4068195601201958 
-0.4608279241240277 
-0.07005796566730321 
0.9567189584290624 
0.06979196162155804 
0.1292642982977764 
-0.1699313279837894 
0.3129237353798860 
0.0005152262429987241 
-0.2217997111164825 
-0.0002354782861697137 
0.5413418740613010 
0.1674955850844358 
-0.03451871171564423 
0.1321375774865844 
0.09800834338207227 
0.4947560401496077 
0.1885947990119856 
0.02847136200807063 
0.3190899424904090 
-0.0002963471535479467 
-0.1374788605667931 
-0.1916806722322010 
-0.1512248139666501 
-0.1283700219423883 
0.1009714490279931 
0.2980853600727444 
0.2237116031481887 
-0.3895937660969910 
-0.5761249176376996 
0.3188315908696228 
0.2882297623423719 
0.6493982771895040 
-0.002366671173984256 
0.04183362187339031 
0.5776717105770575 
-0.3604368743513420 
-0.4396088176859792 
0.01148465552656403 
0.07728847900682632 
-0.1494133884089168 
0.2353609373013701 
-0.4646812037770360 
0.2708395068392407 
0.5407490020747906 
-0.2692487316084172 
-0.1447808927380640 
-0.1933637172215194 
-0.1392193913626702 
0.1382221266978154 
0.1390515028019266 
0.1390515028019266 
-0.2565070907546975 
0.6051276637594185 
0.2223381187945053 
0.1386756283265509 
0.2373597817381942 
-0.04193485048265045 
-0.1051434283935490 
0.4961108640771219 
-0.7074828797463356 
0.1297142088431719 
-0.1603773170853557 
-1.053588896535208 
-0.0003930385929048655 
-0.3655649914792725 
-0.0003930385929048655 
0.09017211157490398 
-0.0003930385929048655 
0.1115667864724368 
-0.5799265543566846 
-0.2863957204796734 
0.3860231157250603 
-0.2863957204796734 
-0.3697433140748208 
-0.2824679496655636 
-0.1978076487163180 
-0.1057769960975894 
0.03369202064366874 
-0.09302065966360971 
-0.6912020980606837 
0.0002293471411680859 
-0.08053051466182126 
0.3335207953333874 
-0.004652115136378934 
-0.2624079757154295 
-0.3735655276365769 
-0.1433791340967901 
-0.07904829519221512 
-0.3667115950168643 
0.4481708535363428 
-0.06852278096579659 
0.8090024407037821 
0.07186511154429596 
-0.09534235782126602 
-0.3533662768487016 
0.5562357308589079 
0.1140947465019440 
-0.2196382489490085 
0.7604132113553437 
0.0009326996295154991 
-0.03778756351599105 
0.1501382363139891 
0.1841963324302086 
0.2497766745814464 
0.01870174017442366 
-0.5049081314765798 
-0.008729844256951374 
0.4536746508104385 
-0.002724790895501213 
0.08060689565054233 
-0.2393582196949372 
-0.002724790895501213 
0.3032083761897320 
-0.1431875633701494 
-0.5027385552504368 
0.2666255152887222 
-0.1052661902507482 
0.04210349118424758 
0.4514512530768351 
-0.7038439925012699 
0.02886812582658324 
-0.4231199277830841 
0.3571435528966513 
0.7279358811908410 
0.04414350361117055 
-0.006504803370552948 
-0.2595245981078897 
0.1525803284220119 
0.1401910522593511 
-0.1336994328219620 
-0.2447165207117017 
-0.2447165207117017 
-0.1370271379771121 
-0.05863319687086824 
0.0002412028081613758 
0.5553525726071127 
0.3402256320186821 
-0.3698628154639574 
0.9502746927530510 
0.0009556633233862542 
0.2319951237524087 
-0.06698777691014983 
-0.3146465848690074 
0.1247732723691948 
-0.1629226829510055 
0.05644600523630030 
0.05644600523630030 
0.7817999075361133 
0.3398191053383540 
0.3499870971634878 
-0.2508476817305788 
0.1665526143749559 
-0.1505073134523260 
0.3300915945120367 
0.4638139606117255 
-0.07358329221382550 
-0.2038263602745514 
-0.2119523107662665 
-0.1721313162089616 
0.3689852248136666 
0.2127295030042393 
-0.04644781017361950 
0.4850289195709867 
-0.4852236474130762 
0.06578174611066695 
-0.1236890521384958 
0.1074959801978208 
-0.1236890521384958 
0.03071546240552494 
-0.1236890521384958 
-0.3271269583186006 
-0.2446367897193749 
0.05617063323693438 
0.2010527452438732 
-0.02727944087406248 
0.1810570137428262 
0.3201308500362461 
0.3897254487072752 
0.3992472177388129 
-0.0004112027180784841 
0.04725508038293565 
0.4815613992727083 
0.3487636053796407 
0.2252325842956062 
0.1918460031114012 
0.2252325842956062 
0.2252325842956062 
-0.3556829892003400 
-0.1209309371331509 
0.2495322618721362 
0.3569953464626690 
-0.4690492210998060 
0.05341919248070937 
-0.4690492210998060 
-0.2413905763116528 
0.3506183930099623 
0.2124283314327040 
0.01239125567034674 
0.02323336598221562 
0.1264029365904107 
-0.09210501872659985 
0.2061565813010118 
0.01565256885962830 
-0.1729814792075987 
-0.1729814792075987 
-0.1729814792075987 
0.8332872819143192 
-0.3688709852439058 
-0.8804879424834239 
0.5481841673142672 
0.03571228945928020 
0.1255693490143038 
-0.3919631305279938 
0.5665603755998320 
0.5660648789942745 
-0.1418476892760540 
0.1563621697110507 
0.5647009097498943 
-0.2431597378195371 
0.3639955544292502 
0.2235874603944236 
-0.05595724599903525 
0.1698397638143791 
-0.4491696636543134 
0.1152680738276090 
0.2295989951866938 
0.5201980437064881 
0.3682850011506795 
-0.001150300988605841 
-0.4466020666725103 
0.1972656553878462 
-0.05342437018398336 
-0.4040635343764800 
0.3515065631275729 
-0.0002062937187327215 
0.2092947524717866 
0.4964355877135604 
0.2923941736578402 
-0.2174752888451986 
0.08728839468617451 
-0.8676994363299968 
-0.1860748921024936 
-0.6816183335987239 
0.1305845993203594 
0.1892224787266328 
0.1540519053359318 
-0.2300617576485977 
-0.2300617576485977 
-0.7170921097901666 
0.1822120191297246 
-0.2300617576485977 
0.3242832224947975 
-0.3516091029166046 
-0.6052779606942275 
-0.9403046101669331 
0.05878299337830302 
0.4993411726212266 
-0.09924262986878306 
0.005756100356095884 
0.1802251667572657 
-0.4844135383112112 
-0.1536515813289785 
-0.1536515813289785 
-0.3562917322694736 
-0.1536515813289785 
-0.3220395669723584 
0.003146548854379996 
0.002856348802574946 
-0.003576508074649596 
-0.3065118600700424 
-0.4860754123445845 
0.4992338080566273 
0.5300248922953371 
0.1606186832677615 
0.03695794610522359 
0.1386473487584116 
0.6159363960235311 
0.3395299887370994 
0.05111081837195549 
0.2440933498926634 
-0.1947285146086810 
-0.1947285146086810 
-0.1947285146086810 
0.06900387930883420 
-0.1949993517948865 
-0.1681389565725387 
-0.1947285146086810 
-0.4092888946393156 
-0.03646958917676447 
-0.3466781782221797 
0.1589433277663419 
-0.3466781782221797 
0.1802946572293945 
-0.5625350881685328 
-0.5866507537666891 
-0.1267852443492326 
-0.001123572964756446 
-0.1442615734499742 
-0.1653562230554486 
-0.2375713699169709 
-0.3090344134235235 
-8.942387687135736e-05 
0.1002492749079012 
-0.6905675436578470 
-0.6750310031643705 
-0.1007985779015861 
-0.1007985779015861 
-0.4762337758883305 
-0.1007985779015861 
-0.2666730836662148 
-0.09252605722070002 
-0.09252605722070002 
-0.2615319162669507 
-0.1709749927176061 
-0.04057876072728441 
0.2128783332064818 
-0.0005467959109603905 
-0.0005467959109603905 
-0.0005467959109603905 
-0.07481156810082220 
-0.1236073021322473 
-0.4022111229669113 
0.3106274629515827 
0.3536102586798262 
0.3536613759636507 
0.1569261140218816 
-0.1621678316330004 
0.08026832096464440 
0.08026832096464440 
0.08026832096464440 
-0.1731641161736428 
-0.3660481977569364 
0.04151062877892137 
0.02903717566820321 
0.003199492879600343 
-0.001393455963260423 
-0.1234926956316216 
0.3837673800172723 
-0.1990988140075437 
0.3837673800172723 
0.04603401857500697 
0.1216759106333977 
0.09778740767235360 
-0.2089214468151515 
0.1703849223475414 
0.1298083027799635 
-0.09027633576001060 
0.2526702067040931 
0.2526702067040931 
-0.2479165119213052 
0.3294366306433096 
0.3294366306433096 
0.3294366306433096 
0.07359397487306418 
0.1907820624537759 
-0.4503902238502985 
0.6762028860060889 
-0.5014853215929813 
-0.4655196727222770 
0.0001779177445481947 
0.0001779177445481947 
-0.3447829256775100 
0.0001730447181598066 
0.0001779177445481947 
-0.3786503946841073 
0.1815553292464179 
0.2361511726276380 
0.2361511726276380 
-0.02101134833701934 
-0.3047550324814191 
-0.1618190902839373 
-0.1136025723213800 
-0.1618190902839373 
-0.1618190902839373 
-0.4633536621992656 
0.1328829101243935 
-0.2827837102961656 
-0.2729687983817966 
-0.2729687983817966 
-0.2198652825191533 
-0.3830461795886268 
0.1289550025866739 
-0.3635454856692025 
-0.08100238813181608 
-0.1517022403720921 
0.3557012055798609 
-0.7751725707249024 
0.006949855469844959 
-0.03320363356446610 
-0.3618081435344587 
0.7997320738819903 
-0.6810746640695475 
0.1521008563463515 
-0.2101266047298466 
-0.4135346228751730 
0.1922064511707251 
-0.7992174849252403 
0.8740364927315679 
-0.4135346228751730 
0.5897187163033766 
-0.2162675393635408 
0.2491383605315108 
0.1342240188188598 
0.03361192626624104 
0.4491442313078773 
-0.2193279301420517 
-0.2193279301420517 
-0.1687981810010052 
0.1932413136571389 
-0.4036591611380037 
0.09756640587514502 
-0.1810792619701029 
-0.008726854795383116 
-0.4949905373106645 
0.2107425785876998 
0.1284987213917179 
-0.2417873132441779 
0.0003252465320842061 
-0.1665991879023946 
-0.4440025736868610 
0.01525486698483247 
0.01525486698483247 
0.01525486698483247 
0.01523209500467084 
0.1961386372500127 
-0.1559489071780317 
0.07729553258383687 
0.01673545637417333 
0.1571114813188166 
0.1745088763517723 
0.1745088763517723 
0.5333743642895084 
0.1745088763517723 
-0.02378258369597370 
0.1931712742840537 
-0.6606190035067548 
0.03479429711068165 
-0.5340392706778732 
-0.0002023903516010935 
0.2330778249352760 
-0.1202662694805631 
0.07481864115105966 
0.3235639526157229 
-0.03337429190721229 
0.2906910297812304 
0.1198930643269752 
0.2056715704987421 
0.06568040920807261 
-0.1159025618411170 
0.06818717746997495 
-0.1159025618411170 
-0.4998346036877512 
-0.5089091135404752 
0.8245152354033250 
-0.4829495375681148 
0.2071824476941198 
-0.2588988627171875 
0.001530352076151645 
-0.2298882279355914 
-0.3339260757946838 
-0.3339260757946838 
-0.06221412086599903 
0.01811739189803687 
-0.06221412086599903 
-0.4652366895934109 
-0.06221412086599903 
0.6960518129912164 
0.4545618729375968 
-0.5896394887162826 
-0.5896600979867542 
-6.894599836834183e-05 
-0.3508785131902171 
-0.3545290877094769 
0.3608174281912998 
0.4018335289528908 
0.4998346036877512 
-0.4128771504916077 
0.1754125921704156 
0.5030151539902115 
-0.2430413869514855 
0.1754125921704156 
-0.4128771504916077 
0.1754125921704156 
-0.2682608536462162 
0.03481257730744029 
-0.2468398840975599 
0.2700562674302095 
0.3089621966559604 
0.1194509207077825 
0.3766903956074141 
0.3617935777258592 
-0.2410251678959280 
0.03953314866855009 
0.03953314866855009 
0.5132898415937980 
-0.4097991865647149 
-0.03865069696376124 
0.008217285898344726 
-0.01228028866132415 
0.8088577857337476 
0.4989161508576256 
-0.1580985573837682 
-0.1453606153428162 
0.5368465826604027 
-0.05595351305165732 
-0.03104032383286918 
0.2782233116045449 
0.4998346036877512 
0.7025561112239509 
-0.0009513772137091266 
-0.3186380726209347 
-0.03258973405062680 
-0.5410224874781465 
0.6337599578726093 
0.04680686550093509 
-0.07080351417815686 
0.1482216473660313 
0.2799571670398035 
0.09759572321798071 
-0.07080351417815686 
-0.07080351417815686 
-0.3895296439200894 
0.09545164779340669 
-0.07684029191419424 
-0.2691731814140255 
0.2118824317541434 
0.2503363211875262 
-0.01195456745916287 
0.1136988145015947 
0.09962317190252264 
0.4216116403342251 
0.1372241923907420 
-0.09195494183221707 
-0.2363303132788684 
0.3781811793270501 
0.3781811793270501 
0.2752954343104164 
0.02744103679171730 
-0.06616325767715450 
-0.06510272427454497 
-0.1309410435711571 
-0.3243649388807867 
-0.1522054976310547 
0.2124050520011892 
0.8896613392071969 
-0.2353785130184051 
0.4757091874776537 
-0.2770359076898821 
-0.3217967382640690 
-0.4707560248003270 
-0.4833268315368678 
-0.4833268315368678 
0.3286029374530589 
-0.07505046035976906 
0.3994461755372261 
-0.05550088545582517 
0.08989941020834545 
-0.6064503467511013 
0.5579602532948462 
-0.4616139380812719 
0.002052721390341003 
0.1680267077429159 
-0.6129277813432497 
-0.2035735392124936 
-0.1668904111369215 
-0.1202657241773689 
-0.2180193770804077 
0.6252500978988054 
-0.2175183583487516 
0.09506125811298977 
0.3384374072424271 
-0.2051306889256662 
0.3634303566790462 
0.3880642248333743 
0.6448854296713706 
-3.181260749415534e-05 
-3.181260749415534e-05 
0.2033454466383325 
0.5327358697571170 
-0.2267484086452795 
0.1543891073786647 
0.1657554755938294 
-0.04206185835142902 
0.5005407612291516 
0.06454606231459645 
-0.1033268580214240 
0.2190034744249953 
0.4998346036877512 
0.2262430033391495 
0.01818607224816787 
-0.6439266813099946 
0.1745710819523764 
-0.7397611164260803 
0.8425062000782267 
0.4416763796291988 
0.09955736319280381 
-0.1564439021543749 
0.02519096592669394 
-0.1412007677946209 
0.4499156677572390 
0.4998346036877512 
0.4075755239501863 
0.04981226811838166 
0.04458085432192610 
0.5889767796392593 
-0.4358589487228048 
0.1293903420548414 
-0.1511511657568202 
0.0007359208731432540 
-0.2435784009596568 
-0.07552737196327020 
-0.04373788616633582 
0.4284534558779769 
0.4916980912504948 
0.0007359208731432540 
-0.001221381263826163 
0.5697372463957869 
-0.3049625019289875 
0.3489590931352296 
-0.2404561940501893 
-0.05039672753314661 
0.3489590931352296 
-0.1965386779947376 
0.09036427767175510 
-0.06528624264750390 
-0.1100054179570369 
0.5734411223502348 
0.2739132494357092 
0.3559534284326060 
-0.2332699571564040 
0.07698553097618699 
0.8233076678221993 
0.05216805039515630 
0.05112742473658487 
-0.1635992350519582 
-0.02927823403082062 
-0.1131433440041448 
-0.1851395006372632 
-0.6103570756157464 
0.4441381675680363 
0.4578723526545608 
0.3345362716698265 
0.4914655988216881 
0.4914655988216881 
4.304043157924570e-05 
0.1825312595522574 
4.304043157924570e-05 
4.304043157924570e-05 
4.304043157924570e-05 
-0.4860560477713564 
-0.08214991482384100 
-0.01312224795544692 
0.4583031513263260 
0.1410857781211393 
0.07116932930588729 
-0.06507659345733528 
0.1970995408909550 
-0.2685038854227874 
0.2908121456459177 
-0.2624888555999697 
-0.4528181442546498 
-0.3326488871756973 
-0.5119751719381701 
0.4475619575037356 
-0.04921617307655958 
-0.3277403223726411 
-0.08691646818760837 
0.8681124456012927 
0.3820990327341606 
0.2982640681679824 
-0.3958056104265263 
0.2986279546855840 
0.2020470321976332 
0.2020470321976332 
0.2020470321976332 
0.2027887778566903 
0.5823229429918740 
-0.6605675295300872 
0.3927043109714983 
-0.3938286644328213 
0.04866758939509117 
0.006783182019352905 
-0.1568552504727328 
-0.07723414700887556 
0.002278446222687022 
0.7576737597057415 
-0.3270287169340048 
0.3236790267398551 
0.2146252270432763 
0.1865170417508222 
0.3836051170141449 
-0.3491415322403683 
-0.2236936699115451 
-0.2233967804721340 
-0.06440047805125840 
0.5253250121119266 
0.1339359252573945 
-0.03902320152076381 
-0.1977381221467484 
-0.03902320152076381 
-0.03902320152076381 
-0.03902320152076381 
0.06060634206412303 
0.7012252507087303 
-0.9001919780938211 
0.001268647735172181 
-0.5880918784624631 
0.2973256425027255 
0.1972559442078818 
0.1915716095883382 
-0.4865893979560571 
-0.03355695698497856 
0.05627635137591498 
-0.2895373418507851 
-0.0007095278288613898 
0.1315993435386227 
0.1315993435386227 
0.1315993435386227 
0.01657915208728103 
0.6096256061051604 
0.1315993435386227 
0.1315993435386227 
0.4676261376794598 
-0.2716311844052541 
-0.0004035278660083075 
0.1644202566446922 
-0.5548271373195439 
-0.03894690599408193 
0.3523232951925384 
-0.1108184910434601 
-0.1082906919753785 
0.2731219945144779 
-0.2602687922435970 
-0.2875207955577696 
-0.7599609969671864 
0.6672305437862741 
0.1935671115137161 
-0.4102098780880256 
-0.2487896731938807 
-0.1502338276650558 
-0.1795537486134528 
-0.5232231123340703 
0.0004680909668698654 
0.01921379696364707 
0.2162873581964799 
0.2162873581964799 
-0.4889653524974447 
0.4040086457539785 
0.07301856040195255 
-0.4889653524974447 
0.06043165476618825 
0.3579336747558617 
0.05443358696907184 
0.2032838842037557 
-0.6323252996753551 
0.2524824820234116 
-0.2390683793288022 
0.01411005327617743 
-0.3813702675357426 
-0.2852080008839809 
0.0004875418988388725 
-0.1299038388225015 
-0.1299038388225015 
0.4378743783422148 
-0.01183945847264296 
0.1728637186833389 
0.4378743783422148 
0.6653944481204331 
0.2741475350403576 
0.5105248022422069 
-0.3382759207249058 
0.08528398950780954 
0.07551283244562734 
-0.05716805252325884 
-0.06948739006572438 
-0.3149037676890065 
0.06916717375855529 
-0.7064355013874895 
-0.2690923873744413 
-0.2629847585273688 
-0.1067382677732416 
-0.6426356213153062 
0.2283979053001482 
-0.06240631194156274 
0.2283979053001482 
-0.3492768185244429 
-0.5395726329129107 
-0.1175922669234507 
0.1349974982434560 
0.2356304735271521 
-0.3141030361109413 
-0.3141030361109413 
-0.1480822546328939 
0.04008954856225118 
-0.5218045011089564 
-0.2852971798814355 
-0.06204175079329363 
0.06523201377544884 
0.4073727688641338 
0.09145770379238546 
-0.2395805246889608 
-0.1340121608353597 
-0.001933230655492418 
-0.5818054938280107 
-0.001933230655492418 
0.01052787318679909 
-0.2662098316260160 
-0.1233674806884811 
-0.1521004341234058 
-0.2765229219135936 
-0.1413194924567587 
-0.3003694219961609 
-0.2991824392303870 
0.1549796456785739 
-0.07936802961310155 
-0.08177426784311727 
0.0008366152404217803 
0.3303229241800756 
-0.7458218722899020 
-0.08177426784311727 
-0.1441931099940389 
0.2958989560339940 
0.4172853632123286 
0.4981017838140990 
0.09849890419311468 
0.09746036969965555 
0.09849466362498387 
0.09849890419311468 
-0.1821842981057190 
0.5313322569323631 
0.0004083831237791978 
-0.2459439350427696 
0.1605823859699713 
-0.1922214028625068 
0.2705887103874258 
0.1114039647649153 
0.05715863883202202 
-0.5322689589379072 
-0.05951454710036161 
0.5953189493763544 
0.2231035508982292 
-0.3299315235018738 
0.3281802864223685 
-0.2136034968836989 
0.4228573161801069 
-0.3021564544277171 
-0.5241921986844078 
0.2291076394097608 
0.006402287700087076 
0.5022358858921099 
-0.2554376198027980 
0.2472004956228738 
-0.7229468688858036 
0.4489718526397982 
-0.2179807242738966 
-0.06609809301239780 
-0.04251440295597514 
0.1896262243512930 
0.4565905198879228 
-0.3912623656930647 
-0.4866915109389784 
-0.1297240256010459 
-0.0003440689955488564 
0.3908229792646276 
0.1405077741221249 
0.0006689086082425789 
-0.02568791251037956 
0.3662399039796337 
0.3202821408293301 
0.1230507977659622 
0.1368629616415287 
-0.2017268117677893 
-0.1191683391010069 
-0.6710373563406445 
0.4247278295002886 
-0.3290082283936353 
-0.3293554470909075 
-0.1033171864386950 
-0.4496658814265225 
-0.7522881960228065 
-0.2515408243020619 
0.2120283261140115 
0.6087221433553894 
0.3395534510543105 
0.003518553103043489 
0.3081159529055468 
0.06173596202698511 
0.3239718357402811 
0.4042312311559673 
-0.2290328715528654 
-0.004210798787795365 
-0.4643211498434762 
-0.1304175870035663 
0.2165686229999604 
0.6283699866230777 
0.02562976156607757 
0.2129164906268407 
-0.3263936612218494 
-0.3983804282966732 
-0.0001774281754471107 
0.08370588184479233 
0.1008697874451050 
0.4064621318440077 
-0.1376450619808752 
0.06723644998590327 
-0.5284110732186269 
0.004057178971820079 
0.2972458174077666 
0.3399950468044059 
0.3639216921418733 
0.1329140746700163 
-0.5697199837513831 
0.2276513051015522 
-0.0008671687989062812 
-0.1352943461876437 
0.3232681454938942 
0.1419212343688647 
0.1231704971482003 
0.3643813146646009 
0.1252093889006965 
-0.5665758023738582 
0.04991538073707043 
0.2192114396328340 
0.4854173477183277 
-0.0001963885115678385 
-0.2733503822033026 
-0.06235678014225146 
0.3757172891229670 
-0.5825182357196199 
-0.2833094236965973 
0.6567990559221301 
0.7699835304891512 
-0.1312980396499709 
0.09059698966661102 
0.3971067980868837 
0.1846792513921746 
0.2342431803531717 
0.4589981578409593 
-0.3528539516269362 
0.05077261695364974 
-0.7829525139614946 
0.7880651361491959 
0.1126162413972101 
0.007956174995235599 
-0.06774977877865080 
-0.3456208846407493 
0.07252437078516230 
0.1738320435741834 
0.7196028827591987 
-0.2229479780972550 
-0.1139520651854674 
0.5390255054536116 
0.0002607837033212360 
0.0002607837033212360 
0.2398890635881176 
0.2717992889202462 
0.1505869377923935 
-0.008879832888960226 
0.1358818969927745 
0.05121067915246969 
0.05121067915246969 
-0.2763537813205111 
0.4551036725244044 
-0.1114914350258065 
0.3692067923589126 
-0.2095879425528909 
0.03113453174612563 
0.6560029521103213 
0.1434917705811326 
-0.4340495705957458 
-0.1860073208395204 
-0.03855722406373627 
0.4559595605732737 
-0.3723510949073698 
0.1307440252615833 
-0.1392408827766181 
0.6660009820323208 
-0.3678739038022824 
0.3688074498058062 
-0.1393444709850914 
-0.2898878427041188 
-0.5751877818405564 
0.5496509663258555 
-0.7684261732820592 
-0.0003780194633452340 
-0.0003780194633452340 
-0.0003780194633452340 
-0.1322566445501333 
-0.3650819187005567 
-0.3057217243535745 
-0.3947711503310786 
-0.4485362912936712 
0.4122172245201265 
0.8351702296570351 
-0.1574284541088868 
-0.01058252312247200 
0.02930090741406376 
-0.5987781475477715 
0.06596409927068395 
0.8547724945177104 
0.3390144521187458 
-0.01627530328768204 
0.3324810741876230 
0.6723314302881563 
-0.07626007138732953 
-0.06032087676715614 
-0.4090201409499301 
0.2350741379439302 
0.2346073821780349 
0.7650847194998277 
-0.08826559261514236 
0.3582781095378148 
-0.06133871284445806 
0.2644556031918414 
0.1968995292460478 
-0.2177843262336778 
0.2962964844124232 
0.2683578323004860 
-0.001612354341909041 
0.3645274301278687 
0.3645274301278687 
0.3645274301278687 
-0.2383412831081413 
0.3645274301278687 
-0.9708684867303882 
0.2870795532400675 
0.1371627743202425 
0.1879784146026050 
0.2836790647996361 
-0.1554401881730136 
0.4326336738096258 
-0.7469609674300905 
0.4325957977613084 
-0.1425445179462588 
-0.4585554057190087 
0.0004051201929311261 
-0.5779019463445407 
0.08446181998945300 
0.3015042853665788 
0.4553893021334030 
-0.01442419389929430 
0.3015042853665788 
0.2914766317979999 
-0.01462633333797151 
-0.2132833556737920 
0.1030554538837690 
-0.1960793992200043 
-0.4803312872218732 
0.1030554538837690 
0.1636351245979845 
-0.002914248027905860 
-0.3721886389037805 
0.1225456777104877 
-0.1485135287204550 
0.2874080731593753 
0.2874080731593753 
0.2874080731593753 
0.7706630476261236 
0.08540526034383879 
-0.5307456456141145 
0.3918163616594531 
0.3011252825605369 
0.6159089677229088 
-0.4682477921368663 
0.7346676664791160 
-0.04903576108825982 
-0.05519488720182542 
-0.07243057244533942 
0.7346676664791160 
-0.3449125723246282 
-0.09547300340124366 
-0.1181112246258563 
0.3123463276449239 
0.2558211264877821 
-0.002325978897618153 
0.3080789940373392 
0.7643633675215463 
0.8387609233945625 
0.06389223772205437 
0.2269372962250673 
0.06389223772205437 
-0.02526410055543030 
-0.4328145344228483 
-0.1529605357058576 
0.02960493939758895 
0.3059096170653085 
0.4368015380683398 
-0.1261674639991127 
-0.01520974001391341 
0.7071469515756803 
0.7925623929769203 
0.4908468244914481 
0.3533523975188521 
0.3533523975188521 
0.2086197337684586 
0.08171243065650013 
0.05404001991631146 
0.06040749824285800 
-0.1149727429818188 
-0.1096465406850963 
0.3670716646746254 
0.3352258128476989 
-0.5377121311754804 
-0.5377121311754804 
-0.1886778296693428 
-0.6122265264554245 
-0.007070977539708799 
-0.5377121311754804 
0.2598240698508187 
-0.07643268205441393 
0.3178636782092687 
-0.2186720753896322 
0.02707011723690824 
-0.1968641530030904 
0.3650185293178114 
0.7362822539695980 
0.3641336507289319 
-0.1680911023730282 
0.0004309506070392334 
-0.3868897265285407 
0.0008202542003091836 
-0.1366877301122770 
-0.6587986252814437 
-0.1667143186750320 
0.04535725463159145 
0.2598651538608406 
0.4427150782827030 
-0.4127288260570793 
-0.01944327692069718 
-0.01944327692069718 
-0.8462285284005301 
-0.01944327692069718 
-0.01944327692069718 
-0.01944327692069718 
-0.01944327692069718 
-0.01944327692069718 
0.4998346036877512 
-0.4286035950267589 
0.09323524903050735 
0.5259170699996629 
-0.07643653672735974 
0.09323524903050735 
-0.5980450631693907 
-0.004999877539780779 
-0.1479616923225174 
-0.6208862708463018 
0.4880397456844002 
-0.1479616923225174 
-0.4721331026120707 
-0.1479616923225174 
0.5280892997434594 
-0.1651180519218055 
-0.5315927344438465 
-0.5105350375314917 
-1.026155113647125 
0.4009094852515212 
0.3263673487614783 
-0.2668242207773982 
0.4929368440916241 
0.2408728314960759 
0.2417604994304148 
0.3330975784326193 
-0.3321941956849558 
0.3330975784326193 
-0.2539014058315652 
0.6476687338787157 
0.3039637748736698 
0.02209212778878545 
0.4814901852856640 
0.5106285816781857 
-0.3492801076032381 
-0.0007824461700084006 
-0.2530176317019005 
-0.5345312513617274 
-0.1331016704807052 
0.06155451872853898 
-0.5091087098765825 
0.5040764845233174 
-0.5091087098765825 
-0.5091087098765825 
0.04412557664051103 
-0.2618727886890755 
-0.04097065245219675 
-0.5635236459782542 
0.2326046822093364 
-0.3321155831518378 
-0.1953761828091385 
-0.09725805558725231 
0.1407650995189415 
0.1407650995189415 
0.4370517718566051 
0.1712432236847536 
-0.08677699709718345 
-0.2828425408432727 
-0.4770820817136559 
-0.4554323607097012 
0.5236715459091734 
-0.1930190226855446 
0.2623989448006652 
0.04481626171381039 
0.2940750943980484 
-0.001858452091030319 
-0.0003420618469889124 
-0.0003420618469889124 
0.1031736675134464 
0.0002591144615238772 
0.9138336240397976 
0.0002591144615238772 
-0.1309164556308010 
-0.07761107149222314 
-0.2461581860333795 
0.1537826117247138 
-0.5469535764198002 
0.2262156552163966 
-0.07403754785892529 
0.5085482689729426 
-0.0009707145915035520 
-0.0009707145915035520 
0.03809676139462437 
-0.2590975678936487 
-0.2762645949966734 
0.09308939316564055 
-0.02464506132017168 
0.1112979937882833 
0.6422924238706584 
-0.3283440864705811 
-0.2511193695952416 
0.1203702814391313 
0.1203702814391313 
-0.2055949712278152 
0.1124666738087037 
0.1124666738087037 
0.1124666738087037 
-0.2384662574855945 
0.1544000946843879 
0.5072152054271843 
0.6100646141068890 
0.3734095064540609 
-0.06870392245540163 
0.5347955079152507 
0.3001350832269622 
0.1400496579037608 
-0.1443106904610625 
-0.07940491676526802 
0.1252612784805300 
0.3458836585193149 
0.2074504337393062 
-0.07694575397952545 
-0.3879086295058798 
0.4767198187617455 
0.1114228926219020 
-0.4797340914411271 
-0.2188394900853578 
-0.08845824813751600 
-0.3441898195180523 
-0.3074768383333357 
0.4254128297195570 
0.05708433614756234 
0.2122765614636588 
0.2913669816005680 
0.2913669816005680 
-0.8334254183756277 
0.5414673252891342 
0.1004491013699475 
-0.1529268503304072 
0.3707910364698099 
0.3845111114950658 
0.1085812608708860 
-0.2531349855103465 
0.1649044183047602 
-0.1167022080855899 
-0.1433352760239058 
-0.7124671643676853 
0.03893076579415773 
0.2021194716711395 
0.03893076579415773 
0.03893076579415773 
0.03893076579415773 
0.03893076579415773 
-0.1728384805908136 
-0.1861105744444806 
-0.3531152659816836 
0.2852434721640502 
0.5077814766617658 
0.5983633744694249 
-0.1108407206591650 
0.6285377134522810 
0.09833167794312665 
0.09833167794312665 
-0.7071507408711205 
-0.05124453072556343 
-0.6530439979427521 
-0.1552425153469413 
-0.3222513029109753 
-0.1394069631630679 
-0.2571238789818625 
0.009282724151020954 
0.003975212599808743 
-0.06624333682671264 
-0.06275591695972489 
-0.2890848913932780 
-0.1448702762662854 
-0.1448702762662854 
-0.01387747375846842 
0.4987993442517302 
-0.1207529283642920 
0.3312243183987194 
-0.3968086185715475 
0.3817441589653002 
0.5991045988176433 
-0.2594105772632752 
1.111195793691665 
-0.1254181804665126 
0.7407595181134917 
1.078550496430024 
0.0009304851680710033 
0.4299488832148984 
-0.2239020196241627 
0.3544091516786941 
-0.1264592898402168 
-0.4238007045265859 
-0.1081558997894317 
0.5682596493414248 
-0.001756816130444979 
0.4829485967042449 
-0.3162800779589251 
-0.1805035565476091 
0.4861147227658580 
0.1457318118187134 
0.4530518417263702 
0.04795271027336562 
0.2316691025899513 
7.378649361568538e-05 
-0.4332693472735317 
0.3655279871564236 
0.7538013100243036 
0.5595924503725898 
0.2580494255536657 
0.4560348686641478 
-0.8244306185418904 
-0.2015138632887790 
0.2492408545679640 
-0.1697238390867785 
-0.4998346036877512 
-0.08665125904230439 
-0.09807179284756506 
-0.3475972064505576 
-0.1532791279835029 
0.0003742024280481934 
0.0003742024280481934 
0.4264530340654358 
-0.2200099751313185 
-0.6991487963512265 
0.02749363959891775 
-0.4166589620082173 
0.09772687691895528 
-0.6083012410184941 
0.1077989265230805 
-0.2420010849127426 
0.0001356080132238655 
0.04189142752541300 
0.3490394690303696 
0.1297926449014591 
-0.5295019227370843 
0.0005764106472599881 
0.0005764106472599881 
-0.1342630072609048 
0.0005764106472599881 
-0.1648875808504449 
0.1084435201462347 
-0.4160074984849762 
-0.4134721796753716 
-0.3764487169915734 
0.1790957503895501 
-0.6400332891487927 
-0.6400332891487927 
-0.03735889675092326 
-0.03735889675092326 
0.02323806372374507 
-0.03735889675092326 
0.1261663606617771 
-0.6466064632454400 
-0.2687259096304415 
0.6050532217888670 
-1.144337845499836 
-0.6464708227516556 
0.1782003368964364 
-0.01605496703172164 
-0.4480716402348582 
0.4804245346460512 
0.2917778736011953 
0.5268907327096896 
0.2844417887382822 
-0.1719639294046925 
0.1016205239985802 
-0.001290458701987362 
0.6352632056181878 
-0.2171923149623916 
0.2078236258711907 
0.004338082365144734 
0.4550412005027764 
-5.393734623922294e-05 
-5.393734623922294e-05 
0.02550454072897599 
-0.1984086143918505 
-0.07889170842564101 
-0.001378374926271391 
0.3250073958555534 
0.4389268936765002 
0.1178057730292462 
-0.05780324906536960 
0.1965168686251373 
0.07996129240666090 
-0.3475623432757019 
-0.6607084643799263 
0.05491470478150935 
-0.0008887944186748709 
-0.0008887944186748709 
0.1844695766506660 
-0.4086543081458186 
-0.4248532306975822 
0.0002142347865720729 
0.4137715743025287 
0.0002142347865720729 
-0.005632272576337032 
0.0002142347865720729 
-0.1898410188924585 
0.1195264098757608 
-0.1898410188924585 
0.3336212678652055 
0.0004330270127515263 
0.1640067913033213 
0.1616473152320552 
0.2923616486087912 
-0.4070811397476670 
0.03380764340443609 
0.08490451805284742 
0.03135135258032475 
-0.1308285262169117 
0.1225950772236015 
0.1124356380010168 
0.7216076391889247 
-0.2892873606340035 
0.3049606306714651 
-0.2892873606340035 
-0.2892873606340035 
0.02441119559963813 
-0.2892873606340035 
0.2337001587718252 
0.4671987517205464 
0.03562019411734906 
-0.5829089000545382 
-0.3624800794123801 
0.001476528489464926 
0.001476528489464926 
-0.6108246888927278 
0.4157126282851067 
0.01995516839784755 
-0.6107707010294039 
-0.6107775221883489 
-0.2869031001204717 
-0.2869031001204717 
-0.7034193208170335 
0.002051610337118561 
-0.09764489046111248 
0.4998346036877512 
-0.5833752271013035 
-0.02187783915159388 
-0.02187783915159388 
-0.02187783915159388 
-0.02187783915159388 
-0.02187783915159388 
-0.02187783915159388 
-0.02187783915159388 
-0.02187783915159388 
-0.2848755388746060 
0.3034569036169337 
-0.2848755388746060 
-0.2848755388746060 
-0.01951409370868312 
-0.2848755388746060 
-0.07959308396207462 
-0.3311419174062463 
0.5882897426620233 
-0.8415802864006404 
0.5882897426620233 
0.5882897426620233 
0.2535320242424212 
-0.2802134750339375 
-0.1337152136504089 
-0.1338815870610679 
-0.1232041315433482 
-0.1337152136504089 
-0.1337152136504089 
0.6726981290557982 
0.09813780497491294 
-0.01673658165608768 
0.09813780497491294 
0.2915420942864861 
0.8321880031798983 
-0.0003237746074942504 
-0.2137790671518658 
-0.2137790671518658 
0.1591662869065920 
-0.2935849994861246 
-0.3422018879424264 
-0.3422018879424264 
0.0001369015095360538 
-0.6819280444190990 
-0.2351199211769323 
0.6214854094020252 
-0.1344482431723436 
0.5141164736627570 
0.0009263957216831559 
0.0009263957216831559 
-0.6653278839057157 
0.002753065737928686 
-0.8300588854867197 
-0.07666715755684210 
-0.4851184670950723 
-0.2120481689368604 
0.5006621834160570 
0.07669359581082273 
-0.2124541000091854 
0.8236387055937658 
-0.01679706164527482 
-0.1858365103185944 
-0.4936798258601105 
-0.0001755915154717776 
-0.05221335161202765 
-0.0001755915154717776 
0.1952425075658918 
0.1952425075658918 
0.1952425075658918 
0.3261925648601475 
0.004655809567919769 
-0.3646966842086397 
0.6642101266035440 
0.4596839133658868 
-0.2809348461489666 
0.1323516272531845 
0.3064095727539266 
0.1323516272531845 
-0.1605704265541810 
0.5616706170689556 
0.0002549369282041094 
0.0002549369282041094 
0.8095012925689683 
0.3940626161646171 
0.1071417310404280 
-0.3957294078411919 
-0.3957294078411919 
-0.02313495019761529 
-0.5719238026366709 
0.5281088620009030 
-0.3957294078411919 
0.007312970023765694 
0.3078347112690476 
0.2031956125095714 
-0.5336334857207580 
-0.0003819040891322465 
-0.4575312764925040 
0.4937175095463783 
-0.4853644987002965 
-0.4045500139928617 
-0.04730870864304335 
-0.3092687225118423 
-0.3092687225118423 
-0.3195779027224134 
-0.4237428276627253 
-0.0005523783194038411 
0.2774545617281802 
0.3429128190067938 
-0.0005523783194038411 
-0.1500190175958382 
0.4469629885892891 
0.5371167658148968 
-0.0005069957960285440 
-0.0005069957960285440 
-0.06919729031766088 
-0.1593585330055157 
0.1886822843762290 
0.5932233948450775 
0.3309208719429994 
0.2408528138531001 
-0.5316824822433506 
-0.2112470623401692 
0.2573173514794208 
-0.0009460432385171962 
0.6817725040052767 
0.6722910910230121 
-0.05740895610362937 
0.2580809390148838 
-0.4024310206674894 
-0.05634704900099708 
-0.2299162267913166 
0.1168741823445209 
0.05073647083236840 
0.05061774002514002 
0.2120229321572028 
-0.1111454569440350 
-0.5051720688081794 
-0.0004780302232995620 
-0.4456482423188306 
-0.0004780302232995620 
-0.2572050236944931 
-0.03380333087756499 
-0.3551819948628102 
-0.3407987134359941 
-0.2941027172065179 
0.4640344874223077 
0.4606174431959771 
0.1764515808101152 
-0.5173077052938420 
0.3242370146805867 
0.3242370146805867 
-0.2005250793305618 
-0.5258389235479758 
-0.06698644829654790 
-0.2917455058989399 
0.4840564481300819 
-0.007104654077411500 
-0.007104654077411500 
-0.1830723493891419 
-0.007104654077411500 
-0.007104654077411500 
-0.3065551742007492 
-0.3070911986442446 
0.7341640315317041 
-0.02728779599121982 
0.3027495175164691 
0.2645054020583883 
0.1401533100124120 
0.1183345308048932 
5.826024066538506e-05 
5.826024066538506e-05 
-0.2426022301674836 
0.4630962773125879 
0.1380364867094109 
0.5060877660339258 
0.1802837696442780 
0.07872006296362256 
-0.3687738437827838 
0.3759065504409977 
-0.02574519336467584 
-0.1916925376229240 
0.1960632791005670 
-0.4952562125659709 
0.2386044126795744 
0.6786988599676349 
0.2847069903686495 
0.02263361559996204 
0.0008666914316871836 
-0.5787673363351500 
0.0008666914316871836 
0.0008666914316871836 
-0.2284873424165373 
-0.02585909956344700 
-0.5090079572253556 
-0.0009236527831794281 
-0.2413078128401543 
0.03761671656148436 
0.2966437339706365 
-0.1712396921378663 
-0.0005434266891931657 
-0.03461631302592036 
-0.0005434266891931657 
-0.0005434266891931657 
0.4998346036877512 
-0.001095780060013485 
-0.09407210621006430 
0.4148509239574770 
0.2712257848528729 
0.2035603360607364 
0.2645936454771898 
-0.1817494092328976 
0.4093706281263322 
0.2267910763646620 
0.03647504151627629 
-0.002711496933312935 
-0.02064569848378946 
-0.2823601293549904 
-0.2131427398763190 
-0.2823601293549904 
-0.0008373977090514288 
-0.0008373977090514288 
-0.4998346036877512 
-0.2218700904591484 
-0.0005322599264759734 
0.1427292328066084 
-0.05561323596534749 
-0.0005322599264759734 
0.4404825352972067 
-0.0005322599264759734 
-0.0009291079086146976 
-0.0009291079086146976 
0.4163179554175497 
0.3912346882100144 
-0.0009291079086146976 
-0.0009291079086146976 
-0.0003324982798554744 
-0.0002708371862054585 
-0.0002708371862054585 
-0.4418753278414480 
-0.1461227344910543 
0.3761407720030310 
-0.7231102753666810 
0.4834271578421308 
0.2733254721462483 
-0.09548399881652017 
-0.09548399881652017 
-0.09548399881652017 
-0.09548399881652017 
-0.09548399881652017 
-0.09548399881652017 
-0.09548399881652017 
-0.09548399881652017 
-0.09548399881652017 
-0.04707669408168856 
-0.5131948873253173 
0.4998346036877512 
0.2574613162758957 
0.1857355232009870 
0.4048103836262546 
-0.1140591245208846 
-0.1230019799893256 
-0.1230019799893256 
-0.1065204720039875 
-0.1065204720039875 
-0.1065204720039875 
-0.1065204720039875 
0.1010548252491194 
-0.1065204720039875 
0.4055616198443446 
0.4055616198443446 
0.1422671238708477 
0.8279995291688698 
0.1151610167618284 
-0.1236136263700772 
-0.2705554723468959 
-0.1360416680468071 
-0.2041530688200972 
-0.5919264277630465 
0.1138213985241434 
-0.1970435599056649 
0.2582999077887527 
0.1134811508098310 
0.1138213985241434 
0.4198789650860687 
0.1138213985241434 
0.1142362927120606 
0.1138213985241434 
0.7609414561177329 
0.1074807848090173 
0.1074807848090173 
0.1946272457052438 
0.4363585892942831 
-0.2064069389112256 
-0.1069867648280867 
9.882245975501340e-05 
0.5353277765173484 
-0.06936423597770856 
0.0005423315379151890 
0.0005423315379151890 
-0.007092467803449963 
-0.2063897513201222 
0.4897617657116386 
0.4052501282977941 
-0.1506669022285257 
-0.1506669022285257 
-0.03681569666273442 
0.0002934312474377615 
-0.1844321657639137 
-0.1844321657639137 
-0.05464412037374751 
-0.05464412037374751 
-0.05464412037374751 
-0.05454959753053562 
0.1495536132300152 
-0.2612106940835411 
-0.08997702775459343 
-0.2612106940835411 
-0.001207746881638694 
-0.001207746881638694 
-0.1593332533173381 
-0.2012630927309290 
0.3514160796029833 
0.3439195813120040 
-0.2254857010974482 
0.04119986683165676 
-0.3371863014077235 
-0.3278607220311740 
0.7617809616782272 
-0.06224115871365803 
0.4295529559162051 
-0.4549332755693351 
0.2834125453798666 
0.2834125453798666 
-0.001559181682151254 
-0.1265282814529793 
-0.1113857448926530 
0.2123159043167588 
0.3473535794616006 
0.3341161553342080 
0.08376150507618503 
-0.0004016048014440273 
-0.09435613053062636 
-0.0004016048014440273 
-0.7738646817234734 
0.03172293863062845 
-0.002869001901923223 
0.1395589511048212 
0.1426330925461254 
0.4645816031524012 
0.07998568655617737 
0.4422614851016110 
-0.006694393524179831 
-0.006928827293464612 
-0.006694393524179831 
-0.006694393524179831 
-0.5067647641111453 
-0.4810495298327747 
-0.4285389124083022 
0.3020777316371134 
0.1302898537200953 
-0.3981433804067787 
0.3960007170982536 
0.04501917379310001 
-0.02862909776677653 
0.5429373059197491 
-0.1819579927080976 
-0.3660679715505272 
0.1630072644882412 
-0.3948750523141026 
-0.0004821364263473587 
0.0001164373570598665 
0.4246285106318430 
0.5528599623607416 
0.7462440213075789 
-0.0009294590751619952 
-0.1939141394942354 
-0.001233237895697400 
0.3175463273594212 
-0.0009294590751619952 
-0.0008349515839011588 
-0.0008349515839011588 
-0.0008349515839011588 
-0.0008349515839011588 
-0.0008349515839011588 
-0.0008349515839011588 
-0.0008349515839011588 
-0.0008349515839011588 
-0.0008349515839011588 
-0.02856208488256921 
-0.0005682360263912726 
-0.0005682360263912726 
-0.2824436098339418 
-0.0005682360263912726 
-0.0005682360263912726 
-0.0005682360263912726 
-0.1563089431762348 
-0.7790920466392514 
-0.7790920466392514 
0.0007184008755381707 
0.0007184008755381707 
-0.2687767250619204 
-0.2687767250619204 
-0.3200105922067901 
0.3444651637622228 
-0.1364909760707539 
0.07359752955722311 
0.3458619451349720 
0.02419706983552799 
-0.3339260757946838 
-0.3339260757946838 
-0.002147243256521370 
-0.1204156645908870 
-0.002147243256521370 
-0.003782338482686366 
-0.003782338482686366 
-0.1216146468889642 
0.1391147769622680 
0.1391147769622680 
0.1391147769622680 
5.292827690040825e-05 
-0.1731567534649288 
3.015629673876999e-05 
5.292827690040825e-05 
0.008632190212822790 
-0.0005933468762801828 
0.06357639370940585 
0.3550881728367828 
0.1521457096819642 
0.08102409191907421 
0.07711594311167547 
0.07711594311167547 
0.1579326023789400 
0.07711594311167547 
-0.2375796586542159 
-0.4979001886174299 
-0.07642011598092206 
-0.0003402534249064351 
-0.0003402534249064351 
-0.1191268261797434 
-0.1191268261797434 
0.02194818205050371 
0.5012085289658488 
0.1810242900893592 
0.006744380991819863 
0.06370784323457726 
0.06370784323457726 
0.06370784323457726 
0.03529159860924035 
-0.03249114113762248 
-0.03249114113762248 
-0.03249114113762248 
-0.03086436738505193 
0.3620894767374605 
-0.7174545764811046 
0.06151713479801754 
0.4763139970709622 
-0.1463595390565357 
0.1627921211389355 
0.3652234368433928 
0.0005255538286626418 
0.2595266772325381 
-0.3660579571046460 
0.5046023476900937 
-0.03230152120637884 
0.06258456980410129 
-0.08624728529174792 
0.6979962662625194 
-0.02631424710160332 
0.5673680300101376 
-0.3778591154762764 
0.04089018271556259 
-0.2869737867984454 
0.4265258026911664 
0.2434785435507630 
-0.7909645597661331 
-0.02124523182760168 
0.3690222874624283 
0.1270342869827241 
-0.2741395322507700 
0.5792520516529169 
-0.5332204643594771 
0.2903322098295938 
0.5114146965063794 
0.1206781895571531 
-0.4325067156382100 
-0.4460229750497887 
0.1694955568690818 
-0.7435102718380534 
-0.7435102718380534 
-0.06509286401960657 
-0.08076028932957780 
-0.2681317105240068 
0.8865458376921639 
-0.4023643291306398 
-0.1268455412008289 
0.1699862421416810 
0.1687267726750406 
-0.0006119886902138131 
-0.0004043295957904666 
0.02303892101026091 
0.4585848425043825 
0.1233315327480212 
-0.001225374644932296 
-0.3645072615579624 
-0.009771013334846259 
-0.1669424682980025 
-0.07410650309889780 
-0.001209947086285204 
-0.001209947086285204 
0.2809647359428693 
-0.001209947086285204 
-0.001209947086285204 
-0.6500542831111541 
-0.001209947086285204 
-0.001209947086285204 
-0.001209947086285204 
-0.0009208257138574021 
-0.6042666052877828 
-0.0009208257138574021 
-0.6054772229977282 
-0.1861978726536417 
-0.8536616193826765 
-0.2976157705840028 
0.0002556410740980485 
0.0002556410740980485 
0.0002556410740980485 
0.02214004567439274 
-0.2795247825468097 
-0.1168046314419633 
-0.2332388857452563 
-0.2332388857452563 
-0.2332388857452563 
-0.8400019440132067 
-0.4998346036877512 
0.1223016780768474 
-0.02918410038289066 
-0.04790327751269878 
-0.0005694635981390384 
-5.262308306215255e-05 
0.04787780713284919 
-0.4061632750273742 
0.0007340316979703790 
0.07906530378156226 
-0.1525612571575550 
-0.005229566382517967 
-0.001401455078134543 
-0.3585638088785109 
-0.1623787010334377 
-0.3994578233234899 
0.1697595760568757 
-0.3998000804044634 
-0.1190276516896101 
-0.2744842044528593 
-0.4998346036877512 
-0.1039291833092887 
-0.07281667134461776 
-0.1960857809550508 
-0.2131985230169591 
-0.3794367403798806 
-0.3794367403798806 
-0.3797633674455039 
0.3493432464580989 
0.04612751050440180 
-0.1325014760922009 
-0.1352276735580834 
-0.1352276735580834 
-0.4383741104778219 
-0.3344951514866599 
-0.2734430392275408 
0.05486876548153583 
-0.2734430392275408 
-0.7229163728225714 
-3.751639839067155e-05 
-0.1668354309858740 
-0.003497798087279444 
-0.3331793391180360 
0.1757716637769277 
-0.3303892162842130 
0.04659347558185545 
0.1915971553897944 
0.001454364561152432 
-0.05977631468956691 
0.1889377225222604 
-0.0003425242505814131 
-0.0006980134941823720 
-0.08854035623499700 
-0.08854035623499700 
-0.4377408989643608 
0.09497677766383043 
-0.02896595501312593 
0.7017546266034176 
0.1461864290593577 
0.1047738974729907 
0.04180240153610737 
0.1931877579794652 
0.1931877579794652 
0.1931877579794652 
-0.5725763687284502 
-0.1544362382041497 
-0.03129110746411570 
0.4364889061995961 
-0.1907785281918564 
-0.1258487407387235 
0.2200051027046036 
0.4364889061995961 
0.07284206546148751 
-0.2736663424870575 
-0.4678570515728496 
0.3076167298456685 
0.4274528303499198 
0.6077612544830318 
0.06567625921582340 
-0.4706238016614520 
0.6494184111368795 
-0.0009739498896925592 
0.0002976164410996044 
0.4383699856376044 
0.1100001391505831 
0.001238870495579634 
0.2548203055562185 
-0.6851443888825933 
-0.2521826785945074 
0.1078802946572367 
0.1078802946572367 
0.1584242855220137 
0.1584242855220137 
0.1584242855220137 
0.0001658446427744936 
-0.2464474002717617 
6.876786390898977e-05 
-0.5561616813977385 
-0.1437618678564392 
-0.3715743114986229 
0.5650441040510937 
-0.3310020590209691 
-0.3681527571847574 
-0.3309982131516115 
0.3420959605462897 
0.3420959605462897 
0.1548550775978997 
0.1548550775978997 
-0.01084848623744485 
0.3085513289717786 
-0.2958147169080351 
0.3095670988763426 
-0.05967617814358889 
-0.05933136653301006 
0.3075934834044486 
-0.05967617814358889 
-0.2060606784224575 
-0.3429063979258903 
-0.3429063979258903 
-0.0009993302737361515 
0.4920269658529215 
0.3701482165886426 
-0.2823561114184980 
0.2727900955196603 
0.2727900955196603 
0.1826944078089547 
0.5889216393172848 
0.9334334425331985 
0.5131285088774008 
-0.1181462789067617 
-0.4441467260097431 
-0.1772594171238120 
-8.863355326441775e-05 
0.06523996326270982 
0.1401644855397991 
-0.1656922450140833 
0.5406779257839036 
-0.2953671659876244 
0.2122984937186623 
-0.3344587875812025 
0.4700552715289288 
0.5002353239439626 
0.1052119440108080 
0.6508998891127167 
-4.905650641054567e-05 
0.7641659646103491 
-0.2114713760250533 
-0.0004804708299607063 
0.1586815900701021 
-0.0008737133578646163 
-0.04865002706599182 
-0.1133643741550513 
-0.3963372295167835 
-0.0008737133578646163 
0.2666804486465864 
0.001040625658571430 
0.3173253758161590 
-0.09834504627371239 
-0.2012716528927372 
-0.0001549642806633314 
0.05701905053980366 
0.01695691928024887 
-0.2837847387887297 
0.8943694073815373 
-0.8663308734857381 
-0.0005850993534350203 
0.2308267265033326 
0.1974640878100160 
-0.2470935633997371 
0.2985865870154254 
0.2452370505011743 
0.0001001833051091093 
-0.2256163297487838 
-0.5442085123243352 
-0.1991380017096085 
-0.08028330379292506 
-0.1274502372113708 
-0.4042396642206595 
-0.4042396642206595 
-0.4042396642206595 
-0.07452258799160826 
0.3375673015370800 
0.1414692598090611 
0.4452559190231713 
-0.5506403175254627 
0.2145203796935258 
0.1838662271174553 
0.2160441239132843 
0.4828024519194158 
-0.007314049211674126 
-0.005053132046016859 
0.1738854121649799 
0.06371768501047624 
0.2657130448594841 
-0.2874021267758550 
-0.2580200646811622 
-0.1869123634665856 
-0.0003548706420965723 
-0.4655104100036628 
-0.2963848891815982 
-0.0007730681316960551 
-0.3972270907983810 
0.1084866902724082 
0.05970411596613254 
5.013561580855002e-05 
-0.4580426951240226 
0.4779388816500516 
0.2933089400365105 
0.05011566766608329 
-0.4864899028436703 
-0.1308401168011851 
0.3093109372976978 
-0.1432214070856162 
-0.1983532387400073 
-0.1209387070128946 
-0.8114818823813248 
0.2381195645076497 
-0.7795547350482194 
0.2815325905665517 
0.0008246919843087203 
0.3124022578538258 
-0.5355303281764868 
0.2734790734613539 
0.4535867191017093 
0.09844713190473227 
0.1505026444949570 
-0.2763203585186056 
0.03114169192866535 
-0.02381152574357089 
0.4962119978223807 
0.7883769989552042 
-0.004047369500036646 
0.1432374014763726 
0.2563136324443400 
0.2632142897250625 
-0.0002494021583721029 
0.2036560702006757 
-0.04480967937661425 
0.2970042819434339 
0.1555112551930147 
0.1580231709882987 
-0.1532570538819577 
-0.05790508265401992 
-0.1758495976022255 
-0.004996748517006582 
0.1186615550879850 
-0.2960075373188484 
-0.4808395457693067 
-0.3829544822919136 
0.1601229945769745 
-1.081347572714684 
0.1845596221614836 
-0.4081619283405485 
-0.6916955250175033 
0.4998346036877512 
0.4414880098298112 
0.1879217771293581 
0.2212756206785436 
0.5743044051568156 
0.03188216793907799 
-0.5419546114794087 
0.5567291430634876 
-0.1361192736644212 
-0.3660117748139262 
-0.1361192736644212 
-0.03429436403961979 
0.2843881235785266 
0.3317578910174125 
0.1677783196562142 
-0.4391190707863779 
-0.7781695755240294 
0.5734774752021239 
0.09304086316985147 
0.7038254667360058 
-0.1150413294511477 
0.7038254667360058 
-0.8116745999077241 
-0.6267935104335104 
-1.004607780424126 
0.3945396303665908 
0.1136855061196805 
-0.2997756872327136 
-0.6459301376991510 
0.1248353189192688 
0.5890792784067919 
-0.5511231456989990 
0.5922934546904950 
-0.1366710204092628 
-0.1849530408468977 
-0.1885977511229400 
0.1813325897935622 
0.5766765813190905 
-0.2618128736079535 
-0.2618128736079535 
-0.003642420792103598 
0.5400951454660687 
-0.4012362947077539 
-0.4012362947077539 
0.4710222970465477 
0.2209615135171607 
-0.2572038102650729 
0.2209615135171607 
-0.003822109699780849 
0.2793348443312945 
0.7356633690951155 
0.03184124237021015 
0.03033899150303791 
-0.6046602118260866 
0.2834076259354466 
0.1589076315739267 
-0.3046435238593210 
0.1396503596267286 
-0.3074489963566088 
0.2137769340155271 
-0.2257963403655955 
0.0008225273826887990 
0.3626163870948509 
0.1696446374539148 
0.1205663723002691 
0.04705866397828099 
0.3513184829656732 
-0.001250311630295202 
-0.001250311630295202 
-0.1798163883493945 
0.2284373663874957 
-0.005300751823223556 
-0.2747286570033574 
-0.4508365758976032 
-0.4448404725418763 
-0.2104033809941019 
-0.7509090741578170 
0.3688284604587390 
-0.3854071985475708 
-0.3278511083214907 
0.04752901128833179 
0.6586178387177692 
-0.3170926700523485 
-0.4575371935334741 
0.6669473965299160 
0.06387294824816626 
-0.2284428059364433 
-0.4568335278903767 
-0.003801159275021041 
0.7699689181032809 
0.02364713806741137 
0.04331360817644440 
-0.4017291180076771 
0.04331360817644440 
-0.1751123383622951 
-7.104721976764275e-05 
-7.104721976764275e-05 
-7.104721976764275e-05 
-7.104721976764275e-05 
-0.5027972818058496 
0.0002083798184038229 
0.3178237262254102 
0.05400729735064568 
0.1892348906765285 
-0.2359109694682896 
-0.07211839169597227 
0.3138569481421659 
0.3992061221204065 
0.2588664638561578 
0.1743015379211584 
-0.3231029980744166 
-0.2260083201898481 
-0.3252438318533322 
0.6624378172694999 
-0.2672499814107243 
0.4998346036877512 
-0.1114923049413894 
-0.4238895426184752 
0.08643707867066941 
0.005956117830462795 
-0.3963850543884737 
0.1250921342222501 
0.04839148446122246 
0.3818085942707152 
0.09354705969248345 
-0.03367872617511700 
-0.03367872617511700 
-0.2200380849048008 
0.1238038411246409 
0.001830615103415048 
0.1166626351452158 
0.001830615103415048 
-0.1866173896973386 
0.2992809179206172 
0.4901311817601692 
-0.2763102472591882 
0.2846064585410624 
0.0002884280349206231 
-0.4631209168598577 
-0.0001975655306242399 
0.4121763401428478 
0.4219749610966541 
-0.004699000802654675 
0.3067550935041837 
0.5237910086510692 
0.2445899743127752 
0.4400114140757196 
0.4384502388691090 
0.08498543506804317 
0.05257291500652553 
0.4564107132833716 
0.4395088267573675 
-0.0001073137044431849 
-0.08187446409862237 
-0.0001073137044431849 
0.3599999538833348 
0.3164811872364120 
0.3703821993828127 
0.3703821993828127 
-0.05409040545326387 
0.4020012361235129 
0.4020012361235129 
0.2306323465022275 
0.0001382884921686310 
-0.08729632747171429 
-0.4340691407090832 
0.03363147339294660 
0.1966681677040916 
-0.002397795093384527 
0.2040530185776995 
-2.740318971349426e-06 
-0.4969934528700323 
-2.740318971349426e-06 
0.007668731603069934 
0.01894735027899611 
0.2620696394497982 
0.1909945354303758 
0.2387534605599093 
-0.3592221492759313 
0.1909945354303758 
-0.3349750977490626 
0.001508511942454296 
0.3438103417440371 
0.4748884874602724 
0.2515793821735793 
-0.2290115650835078 
-0.0006551292417198177 
0.2246110067727675 
0.5445759460766490 
0.1667734757625190 
-0.1447491402579116 
-0.2442557766315398 
-0.2878472412739061 
0.6179873318742290 
0.05133585616840288 
-1.212236405688912 
0.07336823199661166 
0.4227424270562418 
0.0001332285264891628 
0.04907712014010159 
0.1225747327701237 
-0.3597453325294360 
-0.0007582356176520019 
0.2579353237164294 
0.09547361509471557 
0.1389761785590007 
0.1389761785590007 
0.0002263266686461521 
-0.0009945506559524020 
-0.0008900839200351937 
-0.3979308107690994 
-0.4465880730795672 
0.3881015281723769 
0.1775889032078067 
0.4213413993807728 
-0.0001827288378085218 
-0.4592268050125932 
-0.001664769005810068 
0.2457915709807205 
-0.001664769005810068 
0.6364884942793135 
-0.06973923900349448 
0.001304689299829274 
-0.002247810460864214 
-0.0001608174402644835 
0.2574675981247370 
0.09509182604866179 
0.5958677761282954 
0.3366705847861145 
0.2467117127649075 
-0.2049731179333525 
0.04218652910059897 
0.04218652910059897 
0.04218652910059897 
0.1653958301759334 
-0.4904004373998188 
0.3586889254296858 
0.03285008076965145 
0.5235550112243451 
0.1065368839726653 
0.09322917172603573 
0.09322917172603573 
0.09322917172603573 
0.09322917172603573 
0.09322917172603573 
0.1127199885877672 
0.2427221512853353 
-0.02933047469729699 
0.1710533515950468 
-0.03169362296493050 
-0.03169362296493050 
-0.5808899360986054 
0.2958384254051992 
0.4089262739923415 
0.2958384254051992 
-0.2907718859343000 
0.1355365266380083 
-0.0007291311910166617 
0.2227859563651641 
0.3144532799264208 
0.4313196261458439 
0.7316626655064457 
0.2379391226113195 
0.001170440630127723 
0.4927871909501595 
0.2628945836573706 
0.1502198727153576 
0.3611848805345128 
-0.4658489930617997 
0.1475551182733014 
0.3153233359231136 
0.1598333113805496 
0.01423351038364162 
0.01423351038364162 
0.5049186545950561 
-0.002731373516016000 
-0.1413198862077032 
0.5069808390300304 
0.1754069858288690 
-0.07995741116705636 
-0.1471501651859344 
0.4379737975989216 
0.2750288790483342 
-0.04240760825546602 
0.1402223450118225 
0.2421270997095910 
0.2421270997095910 
-0.4331236795509038 
-0.02911032392400380 
0.2719401045886382 
0.1714901580461499 
0.3201123536680900 
-0.4536396377529137 
0.06178701275995736 
0.3274548434033901 
0.06178701275995736 
-0.4398482103674408 
0.1108692759361706 
0.2606826684721969 
0.0001772669151074494 
0.2878643975963710 
-0.001630509540391508 
0.5899494393642899 
-0.9919042135250010 
0.5341018773057293 
0.5341018773057293 
-0.3624072407587761 
0.2140284788640906 
-0.5256071910314635 
0.5982482374773970 
0.1277139762588146 
0.1295810178734412 
0.3038188986070286 
0.1277139762588146 
0.1277139762588146 
0.2850894743748772 
0.3069321771136756 
0.2856229185391358 
-0.2266380152292419 
-0.1368390118543558 
0.1718029244030280 
-0.1140358223482746 
-0.1140358223482746 
0.8199259169367905 
-0.2320879254311453 
-0.5882674079190832 
-0.0009061806479657326 
0.5532619729428043 
-0.2102068777890219 
0.2638569933680309 
-0.002769071231860432 
-0.3056563013460994 
-0.03163124660668369 
0.2368335246030965 
-0.001651315392529537 
0.4121594304389071 
0.02638328406981125 
0.02638328406981125 
0.5026677959485291 
0.3308520030703634 
0.2182346493843114 
-0.7972126389019121 
0.05061591450960508 
-0.7972126389019121 
0.3558406190990380 
0.4942327307672556 
0.1227279951820118 
0.1227279951820118 
0.1768679871626639 
-0.3944919446448981 
0.2016360019541668 
0.1771015050990479 
0.8771701789269160 
-0.3266254205384016 
0.5139372721052142 
0.1795025178787370 
-0.1513347142720248 
0.6077514608362041 
-0.5500992299305075 
0.2360664023003009 
-0.2676020670876277 
-0.1312928220633060 
-0.5694814499969314 
0.3030403825609144 
-0.001066690721592511 
0.2713500571512391 
0.1758596403557023 
0.1141183875727745 
0.1758596403557023 
-0.07200839923875854 
0.3800562229758047 
0.5108322707240005 
0.03510179619118363 
0.5290477701573869 
0.1491322311288377 
0.1282656193769547 
0.1287437026161317 
0.1287437026161317 
0.4271793448230390 
0.3265383502683906 
-0.2505036850151355 
-0.2768651222704099 
0.8016618237022788 
-0.001770837970570469 
-0.2161499392429497 
0.2223791095117242 
0.5155810508571900 
-0.0005388801137470129 
-0.4477163366972621 
0.3402316388652947 
-0.4341601182435652 
0.2317630560847890 
0.2317630560847890 
-0.06643509520842622 
0.6883870349233182 
-0.5608425967026129 
0.2426526702449676 
-0.3978537674585031 
-0.4190258501416023 
0.2247117689613976 
0.1291401840209512 
0.4033561092422452 
0.1213735561128766 
0.0004764054171904411 
-0.2233003423132678 
0.6260251714382515 
-0.4572138939436681 
0.0002424269216711348 
-0.5707092308184594 
0.7540361777864877 
0.2807406514444835 
0.2807406514444835 
0.5438085154555021 
0.2053037163571369 
0.03009973230206941 
-0.2447110751181556 
0.3143717618519283 
-0.5828110127334252 
-0.4998346036877512 
0.6285816476566832 
-0.4698255554678605 
0.0003826293441671325 
0.4108471559074275 
-0.09107456987237710 
-0.1101565255269052 
0.3540267492157189 
0.3540267492157189 
-0.0008650519333064498 
-0.1362149280986267 
-0.1137925340549974 
0.0003700481615795106 
-0.7097732643389484 
0.3477456188910783 
0.1936840362029175 
0.1936840362029175 
0.03970919043321321 
0.1936840362029175 
-6.802314414050743e-05 
0.007533704227409940 
0.1304884694798937 
0.07412436945139428 
-0.1044218213986737 
0.0001027239390034422 
0.4255336017056380 
0.3605322300977107 
0.06583568267361181 
0.3273769096636898 
-0.1442352728770621 
-0.0006973926783359254 
0.04913479333351077 
0.3140382974970513 
-0.4432543991583353 
-0.6628647614949641 
0.2995505409983364 
-0.1060264908838834 
-0.001752528994342213 
0.6932696440941795 
0.2016013398938677 
0.2381460210539462 
0.01235201318211686 
0.1753112229600485 
0.2039508391998856 
-0.2776454135482097 
-0.4884670655681312 
0.1114072217726595 
0.4006084344925811 
-0.0007489911983842804 
-0.2791319505935118 
0.4489442712945624 
0.09710240616922063 
0.0003189072304910579 
0.0003189072304910579 
0.7112744078594124 
0.3815382772982404 
0.04353456796498206 
0.2408737657529630 
-0.2648930048500160 
0.4827420625646750 
0.4827420625646750 
0.08601012665645336 
-0.001092197836938078 
-0.001092197836938078 
-0.001137056215069206 
0.1053805070607972 
0.4930033269253214 
0.2274961471346733 
0.2271306053549001 
-0.01638278250720583 
0.3032165895919070 
0.07650105400016702 
0.3032165895919070 
0.2798101662918157 
0.0001812314422811969 
0.05679504140081280 
-0.6281160809077299 
-0.1887024967215972 
-0.7681285448858559 
0.001814643738289871 
-0.09819723757667138 
0.2521848000901850 
0.5090326368765292 
-0.0007055316437788199 
-0.0007055316437788199 
-0.05162142536150435 
0.1038330533328400 
0.01914233017070361 
-0.2811471757427165 
-0.2792534100260336 
0.3424934467743777 
-0.2013854105746384 
-0.09480797312802375 
0.5878104234714456 
8.419149320312109e-05 
0.05390553034388410 
8.419149320312109e-05 
-0.0003583406853027516 
0.05749356314950642 
0.05749356314950642 
0.4118441069423073 
-0.3431703486413216 
0.2264422439312210 
0.4075100766044251 
0.2773490660760236 
0.06779146879538651 
0.06779146879538651 
0.001015769904564019 
-0.004440975430021511 
-0.1168505917563897 
0.3702445498165944 
0.5074593356130639 
-0.8013492616498263 
-0.03865790512798629 
0.1593766083357573 
0.1591409173613881 
-0.001277605147115255 
-0.07024258902637434 
0.1846148646981338 
-0.2234367850312244 
-0.2884378421014843 
-0.1483770574825457 
-0.04632944360596314 
-0.1483770574825457 
-0.03740890948910076 
0.2749969964586296 
-7.490780861322275e-05 
-7.490780861322275e-05 
0.2025775456439629 
-0.3191641970644650 
0.1658495177918595 
-0.0002691575620467766 
0.1211311291912055 
-0.8953989775695265 
0.1211311291912055 
0.1211311291912055 
0.0002504461463454987 
0.2177034174153230 
-0.3678179173567350 
0.05028786002538922 
0.5788847248480886 
0.3988374574827002 
-0.0009988985954470508 
-0.2577018207651620 
-0.2365841524951208 
-0.3289172685847427 
0.0007584706437608231 
-0.001626854861320592 
-0.3958916173970876 
-0.3762119120135084 
-0.3762119120135084 
-0.6162728161826865 
-0.3361920153155476 
-0.1876536097621176 
0.3191564525242052 
-0.5566658046858287 
0.1357397886916583 
0.1504779667826689 
0.3302084752719662 
0.7001861427979886 
-0.3022098501903781 
-0.3497091743997886 
-0.3022098501903781 
0.6844331657077298 
-0.3295028715491281 
0.1799853293396949 
0.7450098743505646 
-0.5633739618739464 
0.01319390916193968 
-0.1231651026077749 
-0.3049909894064371 
0.2391542168444436 
0.2383358868928514 
-0.009136871446597310 
0.2528617065139668 
0.3992851415897530 
-0.1570770829961996 
0.06925926916561981 
0.0001760426667940978 
0.5358470809801794 
-0.1789453893711532 
0.4368890512056080 
-0.5562548915644842 
-0.08595959300113665 
-0.04439712100167512 
0.3501985635695730 
-0.2109393961219626 
-0.02676926253015203 
0.2187861042817151 
0.1321525113084724 
0.09135573042129264 
0.2189868351269802 
0.4571738736630812 
0.5387911755742985 
0.2131725584724407 
0.4819665596813109 
-0.2417241783802790 
-0.3603922089325099 
0.3663416624416293 
-0.1684364493490405 
-0.2840509797637325 
-0.2840509797637325 
0.0004416445683805568 
0.1337680689812807 
0.3656983792361933 
0.2747006861872314 
-0.6939404192723981 
-0.01048944815952037 
-0.01038687764927869 
0.3693206357267323 
-0.1816508681787179 
0.4444815471952608 
0.3564524646851183 
-0.1095191003376963 
0.1429654065810249 
-0.1143054197855905 
0.1796512691332965 
0.2283921852689201 
-0.1289108210735990 
-0.07415758640347513 
0.5411840324822137 
-0.5837537473324760 
-0.07587857126542866 
0.8593539278284691 
0.2097868092215173 
0.2097868092215173 
0.02085559642189886 
0.4464055525517546 
0.2577260517453194 
0.4556779159039320 
0.04349553364884700 
0.04349553364884700 
-0.09198479614712851 
0.2976107384627340 
-0.002853473994591200 
0.2277262072664623 
0.2913647648604180 
0.2821170661170750 
0.1843230364469112 
0.03239538760792358 
0.1843230364469112 
0.1843230364469112 
0.1847780934124307 
-0.3549102286084542 
0.0002425695522236893 
0.0002425695522236893 
0.4041778431660990 
0.07504620859017094 
-0.09608370706486798 
0.02202668141555530 
-0.03488767758170300 
-0.0002864170186935109 
0.04452542359669690 
-0.02961548116317206 
-0.2602761054755401 
-0.3920986588884042 
0.09639922135104777 
-0.08204742236550384 
-0.1157406973694114 
-0.9689762759372821 
0.07554235350801180 
-0.001428192631147802 
-0.001428192631147802 
0.1637089735903744 
0.6000540737163922 
0.6525215001284378 
0.1851771504728681 
0.0001055814571524151 
-0.3105768074773661 
-0.3105768074773661 
-0.3105768074773661 
0.5206471379753248 
0.0001078047461520262 
0.2314573753012630 
0.1123047592965481 
-0.001554004655544176 
-0.1609428536240266 
-0.3958955372258428 
-0.1154151299659353 
-0.6324622745600380 
-0.2717455413688187 
-0.1274522122739763 
-0.3129851606649247 
0.1048182025159059 
0.3708755062642992 
0.3708755062642992 
-0.1191378787995070 
-0.1191378787995070 
-0.3545330915019369 
-0.08400151321338330 
0.04141654189383609 
0.4836668968013974 
-0.6223509383358246 
-0.1357349812114527 
-0.3360597860724610 
-0.2608287976251857 
-0.0003253167330495728 
-0.1339974707660492 
-0.2263722364032284 
-6.331832776953550e-05 
0.1338428928744369 
-0.1178122469467557 
0.1317278430226389 
0.1338428928744369 
0.4891137920469068 
-0.5281614245586875 
0.3471117445732292 
-0.1145275793062666 
0.002109870544326566 
-0.3664487637472255 
0.2901124425684800 
0.2758809743418302 
0.3769878477425163 
0.1166191567505028 
0.1308313440139382 
-0.3098826862165435 
-0.1212314254433723 
-0.09020662644941746 
0.09062280352857649 
0.1482629017204488 
0.1513561900670262 
0.2406010686559969 
0.1513561900670262 
0.1711776566301127 
-0.05404578527379958 
-0.3681229194184821 
-0.001721901521415610 
0.3104850436575305 
-0.2855800871795467 
0.2768946376941517 
0.0002248537741919451 
0.5268412470608457 
0.2594975858523328 
0.04115076589898904 
0.4142752779686390 
-0.1488238057578523 
0.1503758351090165 
-0.05877032452122356 
0.1368457195034328 
0.2493268963649911 
0.1368457195034328 
0.4273230966621872 
-0.0002186226234048199 
-0.0003578887573922980 
0.3051750697340084 
-0.1175661805580372 
0.4382319131074085 
0.009393791738676388 
0.009341453791077377 
0.009910115548481523 
-0.0009376230157449716 
-0.09634500537104017 
-0.5844064164460000 
0.4696436008037211 
-0.2186974904058316 
0.4087170993652349 
0.1430299619578125 
-0.1291533347501770 
0.2656398229880150 
0.003153983556720726 
0.003153983556720726 
-0.0009627655605401568 
-0.04637766098705178 
0.4241434225434392 
0.1279181161843077 
-0.3506200749756611 
-0.2910136502977503 
0.2230947091407034 
0.4263881173387910 
-0.3467256837027298 
0.2230947091407034 
0.7676743666797742 
-0.4044086725302842 
0.0003215757491323900 
-0.01407564986902738 
-0.2141209266194185 
0.1310847569894993 
0.04021168224124486 
0.2278728997377101 
-0.0006237467830484730 
0.5055656255769005 
-0.3645182045482335 
0.3012514948957394 
-0.6307472194234310 
-0.3397865150443122 
-0.06442144509988963 
0.01703282157524941 
0.5437912620112627 
0.1460572124481326 
0.1453745675399142 
0.1147880446986326 
0.1147880446986326 
-0.2108040239044906 
-0.1899697380234814 
-5.012044628098695e-05 
0.2581461028481134 
0.4688941918052276 
-0.0001091653272323955 
-0.0001091653272323955 
-0.03069328275984843 
-0.03069328275984843 
-0.03069328275984843 
-0.03069328275984843 
-0.4564107186113056 
0.5283685810746483 
0.01431120209847742 
-0.1170244356555526 
0.03582244706457912 
0.03296898955503615 
0.1654939300782327 
-4.230489797035992e-05 
-4.230489797035992e-05 
-0.3336006721497462 
-0.0002554824862781341 
-0.09697297059910139 
0.1578634195032733 
-0.1569055819510430 
0.1495794052311561 
-0.3798838218030899 
0.4109701302766115 
0.1444532916290980 
0.3214840062515173 
0.2092538757260641 
0.09559990248745337 
0.6019061018136648 
-0.1582989367000070 
0.1101098697689609 
-0.0006473853136889042 
0.5560432548498355 
0.2339903215799756 
0.1233684021135387 
-0.0003814228525140539 
0.1116104686677599 
0.01382807129267825 
-0.001297722344967936 
0.08443215791658884 
-0.3339260757946838 
-0.3339260757946838 
-0.4013397741928322 
0.5603243170174185 
0.004312342514228516 
-0.09206315466910503 
0.002010109389398388 
-0.2624769748430759 
-0.2624769748430759 
-0.2624769748430759 
-0.2624769748430759 
0.2492738618982244 
-0.0008876520065942504 
-0.3003991560547275 
-0.2028411384697079 
-0.2919332714204195 
-0.04215125069657152 
-0.3926244955742528 
-0.3928183089820540 
-0.1113623091011905 
0.0009388917874533029 
-0.5837393080968309 
0.1584228973390388 
0.02696268251158964 
-0.3015519001345412 
0.3092945542633242 
0.3130731653360706 
0.1348506237922693 
0.04899517453634196 
0.04899517453634196 
-0.1182499654020649 
0.1635817618157960 
-0.5176139686173398 
-0.0005714951466234694 
0.1008957937205802 
0.3741854673755142 
-0.2548240152534431 
0.4111618765382766 
-0.4339113718326274 
-0.6015700183458769 
-0.4565595101974212 
-0.2822040426493035 
-0.8519948610980231 
0.2293693767077271 
-0.2197821845211917 
-0.2229738756773561 
0.001100879585720393 
0.2090812395041961 
-0.3468458578496095 
0.7071698513333764 
-0.06643477161469567 
-0.5940957348626440 
0.05595012924097007 
-0.04063226545417030 
0.04919860632692712 
0.3222615901406464 
0.001521721588865982 
-0.3797162896855343 
0.1447120038242875 
0.4494862746225451 
-0.0005839892605308747 
-0.01254502717180452 
-0.0005839892605308747 
0.007240262666029754 
-0.6319728436088000 
1.192019291885783 
-0.09982368872020622 
0.0001081943815841281 
0.0001081943815841281 
-0.1492054834494907 
-0.9026231955274532 
-0.4286147895832421 
0.3146306337234226 
0.1444958098862104 
-0.001517618091184139 
-0.1897910009722152 
0.2403108159181813 
-0.1226969754477647 
-0.06695497830789823 
0.6641821146402548 
-0.001599300877243819 
0.2450320165161686 
0.1772319800219137 
-0.2092170824667398 
-0.2827281475863731 
-0.02166540465836802 
0.2965549798279601 
0.3969396815200067 
0.3969396815200067 
0.3969396815200067 
0.1138783169227552 
0.03439545719929178 
0.02916252295033265 
0.1336183222355177 
0.5751658472477169 
-0.3187345759353116 
0.02916252295033265 
0.2183992215585398 
0.3527876001306283 
0.1613257734053742 
4.709590445327956e-05 
-0.3597572446590718 
-0.2816075242440984 
-0.2816075242440984 
-0.4320456459772772 
-0.1375588178259384 
-0.2038099224588688 
-0.6757760625057676 
-0.4545552601174180 
0.09735208977349386 
0.4871589592375104 
0.1777327676317029 
-0.5867506456585082 
0.0005621158435145058 
0.2046347248046342 
0.7736831466573381 
-0.2653314481978008 
-0.2653314481978008 
-0.2653314481978008 
-0.4755842847297319 
0.0001313198133449257 
0.3207210049559568 
0.0001313198133449257 
0.0001313198133449257 
-0.0005098904848241225 
-0.2752963342167900 
-0.0005098904848241225 
0.02781208157153041 
0.02781208157153041 
0.05613119364125625 
-0.2534511293275676 
-0.2534511293275676 
0.03527680357657072 
0.1365912609961075 
0.1748745317233086 
0.6856654805969729 
-0.3297636573356659 
-0.08160688569713495 
0.0001738681063327811 
0.2219530306399286 
-0.1619704635687407 
0.8172453831040836 
0.6478951020206365 
0.2466647079808597 
0.2466647079808597 
0.3643839643345649 
0.4445355191645738 
0.4445355191645738 
-0.4586066880016141 
0.3574448097000340 
-0.6098371056258332 
-0.05844930299228241 
-0.05827658352705224 
-0.09709953381926317 
-0.3061641886847559 
-0.001784804694829022 
0.0005381130197620954 
-0.5281183601691909 
-1.090399641251939 
-0.2691495894134934 
-0.5509137184622316 
0.1246425817361519 
-0.7034385017901426 
0.1205444908535277 
-0.1992847794502096 
0.3125079306383662 
0.1434996100073130 
0.2198662902657567 
0.2198662902657567 
-0.03186928686643489 
-0.6097269716710291 
0.4602016376931845 
0.2580177352576166 
0.005607635747987982 
0.01140476007095294 
-0.0003286220030258671 
-0.09886777402625614 
-0.2322761861507687 
0.1322533578593910 
0.002957601585154422 
0.3259652150942056 
0.3259652150942056 
-0.4329465600181555 
-0.4329465600181555 
0.2993560173700942 
0.2993560173700942 
0.3241951427646350 
-0.6285308053795886 
0.3339260757946838 
0.3339260757946838 
-0.2973948489621349 
0.4433067486541803 
-0.1840329689024073 
-0.0002835748343853980 
0.4617869277951664 
0.0003685519188886643 
0.0003685519188886643 
0.2245757360475735 
-0.0008437954562529638 
0.2894487563413841 
-0.1215142072350454 
-0.2737508104751333 
0.09023115830104621 
-0.4426120920976189 
0.4059465707344044 
-0.3773085305884129 
-0.05735097767690742 
0.1532683315960711 
0.1661419761255393 
0.5086519072851873 
0.0009227620125020902 
0.1768937919376013 
-0.3681820905862762 
-0.3681820905862762 
0.4322691067580948 
-0.2516214384942107 
0.3805905692427937 
0.3188431846951492 
0.5052677165986159 
0.4229076430721754 
0.5862196614930089 
0.2745136444149006 
0.2745136444149006 
0.2745136444149006 
0.2745136444149006 
-0.1212650184714895 
0.3668710916113296 
0.2559008679067001 
0.2321798964761089 
0.2288987106656580 
0.03765709535100234 
-0.5568937542256056 
0.2443046879450378 
0.1017089030159519 
0.001964718572129296 
0.3006001753175185 
0.2267042702381071 
0.2267042702381071 
0.4947115746129048 
-0.03186540369496808 
0.2778303846170254 
0.1239225710298761 
-0.2602381590612815 
-0.2602381590612815 
0.0005755744502395294 
-0.7868096933468754 
0.1355867935572865 
0.4352407127563278 
-0.01119834555276929 
-0.3708633053706723 
-0.3698902844424593 
0.04411050424651505 
0.04411050424651505 
0.04411050424651505 
-0.1653417047031592 
0.04290287665446876 
0.04411050424651505 
-0.0003221530355010144 
0.2117368562436269 
-0.1067384978564381 
-0.0001628078534199238 
0.1860276006863079 
-0.0003710738333886354 
0.3700966079692136 
-0.001503585192951453 
-0.07668389489080979 
0.001750395445433046 
-0.8593960223564810 
-0.1675918165767471 
-0.1675918165767471 
-0.1282687624496743 
0.1670794594912038 
-6.783607864699250e-05 
-0.1799778733947591 
-0.2259307383764994 
-0.2203413675947205 
-0.2203413675947205 
-0.07348238716124350 
-0.2390802894944810 
-0.2390070325161856 
0.4357780465565360 
-0.4620182846634641 
0.3789780043820485 
0.1044231132647990 
-0.02426817204168470 
-0.02426817204168470 
-0.02426817204168470 
-0.02426817204168470 
-0.02426817204168470 
-0.02426817204168470 
-0.02426817204168470 
0.5264699599477716 
0.7296094852323699 
-0.1973855422616054 
-0.1658549261073165 
-0.4391690422878261 
-0.1500479765292948 
0.001196118530548322 
-0.3901040560077869 
0.08452193111498855 
0.6159451535463972 
-0.2614317535511487 
-0.4451355920357322 
0.5337188845313843 
0.1128956752856246 
-0.3923884711254817 
0.1128956752856246 
0.1128956752856246 
0.006623011280459604 
0.07705498380011812 
0.1460343054539566 
-0.07312445869306103 
0.08188273516763435 
0.2378608650329808 
-0.05656806697569177 
0.5049447661444861 
-0.03858200328169718 
-0.3092764863901630 
0.3357776736535379 
0.5444949002683864 
0.2371049500598615 
-0.08654789089478931 
-0.08654789089478931 
-0.1011858934369986 
-0.4199613124804744 
-0.1737933442901891 
0.03529560937440628 
0.03529560937440628 
0.1277933170554616 
0.03529560937440628 
0.0005271185972021393 
-0.005589370781778888 
-0.2171001674130991 
0.0005651497771800851 
-0.3609059300187124 
-0.04954112357071958 
0.5630386329888964 
0.4088888988133274 
-0.001783248496638672 
0.1838859430537679 
0.2202084881463254 
0.2202084881463254 
0.2202084881463254 
0.003275836351533648 
-0.2472757799823032 
0.04240746707727427 
0.0004764118084942988 
0.01312242977540305 
0.01349362201473543 
0.07612060953756813 
0.07612060953756813 
-0.1877817706203894 
0.3913549825092484 
-0.07181576827557871 
0.4579382015487377 
0.02644489934102422 
0.0009542626496329143 
-0.05258094894834537 
-0.3832163927935571 
-0.05125152406762627 
0.2116912455479903 
-0.0001866383719140469 
0.1666978081326244 
-0.1863692163285864 
-0.2748665055406029 
0.05455556206116330 
0.1659818755436848 
0.1659818755436848 
-0.1440822583728992 
0.4090217504713431 
0.09755281756506706 
-0.2388772605879861 
0.6927583459994848 
0.4387876737340104 
-0.3144930999867969 
-0.1100574733319616 
0.1264623846390323 
0.3347613194493825 
-0.3438329935485385 
-0.06363244406501566 
0.0003913914270227202 
-0.3147007645731374 
0.1684341875727235 
-0.0003846455696055904 
-0.001862844791538705 
0.1040655313024356 
0.4262157925958977 
0.06339559841496481 
0.1991009217538531 
-0.1730142206081932 
0.4501339431996190 
0.4249254737546268 
0.5144266975558146 
0.5231770861394474 
0.1242014549554462 
-0.4224920122863799 
-0.2440967152965049 
0.4431753756099592 
-0.4321059006373681 
0.04396055429588833 
0.1234835330329010 
0.3740049490075729 
-0.07753729036809376 
0.3466530620604827 
0.6004715502801707 
0.1740409304171077 
0.1889251139240475 
-0.001475700553343040 
-0.001475700553343040 
0.4519144501414296 
-0.05266337172881578 
0.5138502460090355 
0.1857892749074258 
0.1020939866514692 
0.2977045540184194 
-0.3816576063059973 
0.2692080528966500 
0.004253489578522091 
0.5272726824308723 
-0.0002937785462191192 
-0.0002937785462191192 
-0.1075189655028826 
-0.1245559050007359 
-0.07725752110347359 
-0.07725752110347359 
2.127483821574082e-05 
2.127483821574082e-05 
0.1160966544308747 
0.3132635189577717 
0.2678243598541412 
0.1191324761595859 
0.01302730350245196 
0.01302730350245196 
-0.3971645801560956 
0.5776567507596325 
-0.2242537785306751 
0.4829154757441020 
-0.03102769534127661 
0.2230223655456044 
-0.2872858219637221 
-0.2183684811280361 
-0.2485577184939025 
-0.6984527456207172 
0.1124810270088813 
-0.001005309906197604 
0.005206896042734655 
0.1308816294410896 
0.1998140702107259 
-0.001396781372749324 
-0.3773366397028988 
-0.004244480658208323 
-0.2162268290250682 
-0.1101045279071445 
-0.4429875128004550 
0.1297622795294879 
0.1297622795294879 
-0.3205780965446438 
0.5587427821052189 
-0.2039754201798368 
-0.3734578338412368 
-0.3734578338412368 
0.0005554185737968280 
-0.4280257417239253 
0.04387686160358516 
0.0005324933785243579 
-0.001153436136981111 
-0.5631357332389118 
-0.5659117240938792 
0.02336909436134155 
-0.1703653313266062 
-0.1703653313266062 
0.06939955529712423 
-0.2148557063392941 
-0.0005024645430112395 
-0.4440133274846158 
0.6104239201410642 
0.3788707309179683 
0.02171941901735042 
0.2931962791258765 
-0.6805319170220415 
0.04641734179217202 
0.04641734179217202 
0.04641734179217202 
0.02264913353147595 
-0.3209454883278918 
-0.002809241149853158 
0.4166274757076044 
-0.2146330861606023 
0.1845120987064080 
0.3613536387373836 
2.819703287551989e-05 
2.819703287551989e-05 
-0.001652718281973793 
-0.4457936886613745 
-0.007199226465180739 
-0.7146402215214879 
0.6928469843197750 
-0.2535619008122951 
0.5283011780634482 
4.884723492832346e-05 
0.2145016636285853 
0.2145016636285853 
-0.0007887535780949674 
0.3248953243273640 
0.3248953243273640 
0.2320077267374823 
-0.001393321702136990 
-0.002248107311332293 
0.3124472918897039 
-0.3956899234138245 
0.2493174212122353 
-0.1921741714409679 
0.3321507382443492 
-0.3671794202644688 
-0.08429984754870821 
0.3417639359782877 
0.05053300389704707 
0.0001625968189187181 
0.4300127099923093 
0.1622810270572944 
0.1363774243559323 
0.4275406105226092 
0.2593090273831279 
0.2962438866496120 
0.1774750380283917 
0.4890587219432369 
0.2668546947897588 
-0.2023595789833254 
-0.2023595789833254 
7.043848839093471e-05 
7.043848839093471e-05 
0.2717279384430359 
-0.5229118819859899 
0.06415614820353928 
0.06415614820353928 
0.2210552705049423 
0.2223705993752869 
0.4035157813859034 
-0.3591429183133395 
0.1710518556891159 
0.3114234836268960 
0.3047335943073036 
-0.3332199010690828 
-0.2046327280421394 
-0.2653658188084381 
0.05831771330120107 
-0.2712566478595302 
-0.3321189694096667 
0.0008379170888599078 
0.5094666458619032 
0.4030093647380212 
0.03085827796199191 
-0.1111244786792845 
0.1017089030159519 
-0.0001132038824107951 
0.3559806536809397 
0.6679541822401740 
-0.4583292550085387 
0.1520602833815794 
-0.01516265554889779 
-0.1700657761953375 
0.1337664350436653 
0.1337664350436653 
0.1781777888791603 
0.06431415066376789 
-0.2148491341341524 
-0.4821221702807762 
0.2334070063130665 
-0.3756287636826134 
0.4042386215377222 
0.3497537022310775 
0.3497537022310775 
0.6665130628120214 
-0.3589071955580768 
0.001256009271838042 
0.2629230556671582 
-0.02536368652673151 
-0.5288034501548016 
0.1779708909294427 
-0.5794004320702353 
-0.3969724271208230 
-0.5300735308972112 
-0.3248639293921762 
-0.4665693098886574 
0.01810694350729661 
0.1429108558660990 
-0.03872811923275173 
0.09846516268700697 
0.1429108558660990 
0.1427901915825564 
0.4275754558275045 
-0.06011082424717837 
-0.01255447407551242 
-0.1605804817111626 
-0.04101370530373077 
-0.001972039141733269 
-0.05394149391350404 
-0.001972039141733269 
-0.2205715953315232 
0.2308967007295512 
-0.2027095012244613 
0.3617421681856076 
0.3029574164093800 
-0.3613205027349103 
-0.4215883026388035 
0.1699944543469684 
0.09703239841351059 
-0.1525833773213557 
-0.4012403678797514 
-0.1525833773213557 
-0.7353948991734817 
0.0006727041172222368 
-0.07790270728891449 
-0.4685310596620214 
-0.1831785738068347 
-0.1831785738068347 
-0.2556933848499935 
-0.001950676535081925 
-0.4792884851644413 
-0.1317320686882839 
0.1629367856975756 
0.05274493040859412 
-0.09729929080922882 
0.06355997762526416 
0.06355997762526416 
-0.4419805036990652 
-0.004138793918995576 
0.5254752360337699 
0.06844329802694336 
-0.8330693517309664 
0.3237896473436806 
0.4652446149853387 
-0.1151457773616134 
-0.1151457773616134 
0.2642951999732253 
0.2750366139623955 
0.4685950022541832 
-0.002197493617271253 
-0.08584452779569496 
-0.2568412575773687 
-0.5849709581668643 
0.2145295734351485 
-0.0006727113707243812 
-0.1116127839129691 
-0.3318880037058321 
-0.06951181655629379 
0.2115184695788916 
0.2115184695788916 
-0.001557067520505443 
-0.001557067520505443 
0.2019885404470105 
0.7214787713865275 
0.1614237295234911 
0.2449461484222650 
0.2565001621969351 
-0.3396054778608461 
0.6033060892686721 
-0.4016362147360055 
-0.3994204635884122 
0.4063408302421951 
0.4063408302421951 
0.08796096537743069 
-0.3532164047904265 
0.03774046902713527 
-0.004885025027257697 
-0.1252233721409498 
-0.3317393051495532 
0.08018405228051113 
0.08018405228051113 
0.08018405228051113 
0.0003570737036456416 
0.0003570737036456416 
-7.898698698960145e-05 
0.4821926864614244 
0.05754208068872220 
0.1035943253920189 
-0.1917845202477944 
0.1616408313581145 
0.1129573144146880 
-0.02542421642327289 
0.3024634246131476 
0.5951919761167825 
0.06597195522827584 
-0.001300367057713662 
-0.2765016752298910 
-0.3832826949083347 
0.06092229809136707 
-0.0001198342056845743 
-0.0003129928462188344 
-0.001087047258158416 
-0.3888991948609021 
0.0005196773260532543 
0.0005196773260532543 
-0.4284229680050662 
0.1994295528565954 
0.02100719295541347 
-0.09873512174374577 
-0.4272683860736973 
-0.5363371964899605 
-0.5363371964899605 
0.3666490809040918 
0.1886740101778420 
0.2152014538143309 
0.003523793969586185 
0.3841953056688995 
0.03160980700941307 
0.3764116091892365 
-0.6151112567352975 
-0.3440893053088110 
-0.3440893053088110 
-0.3440893053088110 
0.3068932712934825 
0.8798897140244875 
-0.4918612881223882 
0.04271848443682384 
0.1286855467148787 
0.04271848443682384 
0.04271848443682384 
0.04216092411185168 
0.2556926097385821 
0.07164591722645902 
0.8405831956647863 
0.3185854687884242 
0.008876501382816546 
0.1225275514397748 
-0.001047368175007743 
0.002849125019688738 
0.1642096141101063 
-0.09437238044619156 
-0.006490481877776469 
0.08264144014561585 
-0.5425870165842057 
0.6158725036555742 
0.1083988036464571 
0.2257761561812599 
-0.2321906091522782 
0.2254777582258845 
-0.05232144269540622 
0.3760620426694141 
0.06766191915863427 
0.1579532055252954 
0.4515098501127737 
0.1617668777852637 
0.3231185639158716 
0.3092040205463562 
0.1658533920998290 
0.1078347024237447 
-0.0002141713693586808 
-0.0002141713693586808 
0.03224559372733379 
-0.3818902549835362 
0.5467774408583128 
0.1395363483270581 
0.1516853201318289 
0.1516853201318289 
0.4756573764083810 
0.04100027453653026 
0.1052991672806930 
0.4335848524930913 
0.3928750549792826 
0.06244781555670403 
0.4755863907122577 
-0.4726673318956792 
0.4506772687235814 
0.4506772687235814 
-0.1772429456549044 
0.3469009881954136 
0.02019559027842080 
0.02019559027842080 
0.1800505814910597 
0.1652837776813593 
0.2256964446775767 
0.1472496894722191 
-0.2760217153581638 
-0.2640998237889357 
0.0002762442948781307 
0.0002762442948781307 
0.4826326099669237 
0.1444482912480298 
0.3578321239054136 
0.1462013599623957 
0.0001258462585669079 
0.3492685948488490 
0.3492685948488490 
-0.7686198629835994 
-0.002021405654657724 
0.03351907926230938 
-0.005470283503034523 
0.0007321296940086854 
0.3853507769337143 
-0.4974159624408581 
-0.1607160399727557 
-0.3304540158165220 
-0.09023799374237937 
-0.09023799374237937 
-0.09023799374237937 
-0.09023799374237937 
-0.4824262401049380 
0.07253012894674238 
0.5549550326243253 
0.3294237100642393 
0.4432707968721873 
-0.001172500979194878 
-0.0007451791270732654 
0.02510967525464931 
0.2209708075541808 
-0.0008087862740953442 
-0.0005605388906466582 
0.001348142796494183 
0.1793842139946693 
0.03331741410362213 
0.5130597226909649 
0.2451146186459163 
0.6637960432474952 
0.06159883096551787 
-0.0009242095717403951 
0.1967977713154477 
0.2672950406792609 
0.1533384192836235 
0.1533384192836235 
0.1533384192836235 
-0.2150981660083748 
-0.2150981660083748 
-0.3270898399884245 
-0.4555596588553313 
0.3362154924337861 
0.3367841541911902 
0.3258201694156906 
-0.1484857525926477 
0.0004400347490769712 
0.0004400347490769712 
0.8175867519655760 
-0.001273464124830417 
0.1065936453741443 
-0.09366332494381542 
-0.09366332494381542 
-0.4832379862203171 
-0.09446580477871570 
-0.1714795395806224 
-0.3021677185588856 
0.1138410259003771 
-0.0007509026025878419 
-0.0007509026025878419 
0.0004106177776358770 
-0.08744827040965120 
0.4774709969676678 
-0.3761688224243558 
-0.2402777497704065 
-0.0001506849298576437 
0.1624772390009214 
-0.0004790158701287375 
-0.4443691369759163 
-0.4871311542598717 
0.5118824922232821 
-0.0005920152477571546 
-0.002361197766279116 
0.0004821327524662496 
-0.2862174344062147 
-0.0001781613527619766 
0.06713873549874379 
-0.5301884699294023 
0.05712378332774747 
0.05712378332774747 
-0.1505803790509500 
-3.474480824102203e-05 
-0.3759008254893973 
-0.5421953117715520 
-0.0009195178597387211 
0.5332354846992907 
0.2218013837730711 
-1.032479209794909 
0.4497047418708137 
0.2529263640974737 
-0.4612996823128197 
0.3097395254034687 
0.3097395254034687 
-0.03956228937805445 
-0.6024609024186130 
0.7777554698885659 
0.08836310464307238 
0.2243192014285793 
0.05298003263084170 
-0.07793632077861978 
0.2612649220597261 
0.2612649220597261 
0.1994912599780698 
-0.1010983132549157 
0.5592696982959673 
0.01692005004228860 
-0.5972474621626075 
0.1957083469935676 
-0.2531758531158452 
-0.2531758531158452 
-0.2531758531158452 
0.1754813038350369 
0.1905954585082860 
-0.2984493946082071 
0.2075989036209727 
3.568813778882194e-05 
0.1791627218827595 
0.1791627218827595 
0.1791627218827595 
0.4587519955723126 
0.6543028646005171 
0.2168841276809947 
-0.2116690273048485 
0.0004059027694936776 
0.0004059027694936776 
0.05984225911648469 
0.3171036493562782 
0.3171036493562782 
-0.001833944772878200 
0.08416147316544104 
-0.002047172827149026 
0.1223543011599096 
0.1101679475829167 
-0.08858143351369879 
-0.001241908781286914 
0.5549318480181366 
0.4665802547374268 
0.07283781653939973 
0.07283781653939973 
0.07283781653939973 
-0.2779250157208719 
0.4998346036877512 
0.2623790553049377 
0.2050992393171223 
-0.0007925231187203736 
-0.0007925231187203736 
-0.4756275404280660 
-0.6909730909892947 
-0.3032605557064022 
-0.1253192972344094 
-0.3032605557064022 
0.4390781839209180 
-0.1283939458310102 
-0.1283939458310102 
0.1049981179167808 
-0.1283939458310102 
0.09747856781692617 
0.09747856781692617 
0.09747856781692617 
-0.1956828878192677 
-0.03140653376351477 
0.3883459523333567 
0.001019384652093620 
-0.5176037967492330 
0.0003522406201218967 
0.0003522406201218967 
0.0003522406201218967 
-0.006640837585538816 
0.2568217908220333 
0.2568217908220333 
0.2568217908220333 
0.007335474483832876 
0.6685024811192942 
0.1408075126991931 
0.1174883300391249 
-0.03550609576206079 
-0.1437389968423119 
-0.3062039969888032 
-0.1134630446246610 
-0.1678239662999974 
-0.05131299160139614 
-0.0004758677396066316 
-0.6172973268535765 
-0.2222269803001142 
-0.6486177843265790 
0.0001155790789697301 
0.0001155790789697301 
0.0001155790789697301 
-0.1922177212287033 
0.0006484418765209353 
0.2718248437137660 
0.04933399006029010 
0.2988745886325414 
0.5893771728597360 
-0.05252703698319020 
-0.3333389339198018 
-0.2396823411369907 
-0.2852984687468258 
-0.04246035158678677 
0.07094856948425746 
0.07094856948425746 
0.06576184135588847 
2.718910863809846e-05 
-0.4151502952620914 
0.8366082347886741 
0.1443859138517697 
0.1648627101682609 
0.3694687859026469 
-0.04954221166061523 
0.0006715575625873185 
0.0006715575625873185 
0.0007063901400992164 
-0.5636937481814185 
0.1546609010179178 
0.03360928239562440 
-0.5020174259679921 
-0.2779726912141554 
-0.5182424952094662 
1.990791648276248e-05 
-0.1481739028930049 
0.1272339287581735 
-0.05593500271764924 
0.7043998065877888 
-0.001116522856746299 
-0.2964266070524848 
0.1191227039794013 
0.2071409235013886 
0.2207328211344991 
-0.002334143239535669 
0.3340741891604985 
0.3340741891604985 
-0.4732940169787226 
-0.07656557834390390 
-0.001235391834713731 
-0.2683799778928408 
-0.2683799778928408 
0.3503548241224722 
0.3503548241224722 
0.5284198123692858 
0.5483826708452266 
-0.5045709803931044 
-0.07962561743500181 
0.0007840689801544391 
-0.0005487098439305397 
-0.002466883220403421 
0.2596362767072289 
0.2596362767072289 
0.2371950524188960 
0.5496646802901836 
-0.1389413490368857 
-0.2313930577288586 
-0.1389413490368857 
0.6786336247511525 
0.1976837558383172 
0.03674536639314510 
-0.1397434543744843 
0.1514116035288362 
0.1514116035288362 
0.1514116035288362 
0.1514116035288362 
0.1462577533036046 
0.1462577533036046 
-0.0008125174244558494 
-0.4967104094744194 
-0.4901771721705235 
0.1510004920348990 
0.1474472789984294 
0.1474472789984294 
0.1474472789984294 
-0.1126395522424935 
0.1909658840180753 
-0.4447959998963970 
-0.3247478174990114 
-0.002771692796307110 
-0.0003566328080169892 
-0.002207517248540089 
0.1734605339449778 
0.09090421694662765 
0.09090421694662765 
-0.3478478842771806 
-0.3478478842771806 
-1.214751802305764 
-0.002323405813531302 
0.1435168107137748 
-0.001253016771140786 
0.1595132244893386 
0.0006411002894514649 
0.1934230700220982 
-0.3979084251214217 
-0.2069549066129436 
0.1892902564191589 
-0.02343529287500994 
0.3323829410046487 
-0.8328145021642614 
-0.7064667492627995 
0.0004654880712424911 
0.4699004043075766 
-0.6349278417836787 
0.2961570094344764 
0.4329227628587329 
-0.1572613050108462 
0.2058077202443868 
0.0002044513292515341 
-0.2646586416317633 
0.0002044513292515341 
-0.5305179848037983 
0.001983102515070216 
-0.08663820639233907 
-0.4720416106330130 
0.1671844749231176 
-0.3004831474589439 
-0.1313423971909893 
-0.1306969556405448 
-0.1313423971909893 
-0.1313423971909893 
-0.3688251068770861 
-0.4158853197907356 
-0.4798174323080722 
0.3975355027333485 
-0.4577725767733771 
-0.4969541002897946 
-0.9297708116897442 
-0.0004119120624234184 
-0.03965294604693177 
-0.03965294604693177 
-0.03965294604693177 
-0.2735103608570538 
-0.06332217592549469 
-0.4159257096787541 
-0.07142138598081002 
0.5331923111796233 
0.4932043580721724 
0.4463713085811189 
-0.4192847235528034 
-0.3137349748071660 
-0.1313346971098783 
-0.1456812761212513 
0.1718001622255332 
0.6903722819543974 
-0.1958099385823611 
-0.1473318231001106 
0.1828444775120796 
0.1828444775120796 
0.1828444775120796 
-0.1849391892344327 
0.3481778792769649 
-0.1849391892344327 
-0.5411822119590213 
-0.0004295397962928134 
0.002305113651184448 
-0.4239632125378898 
-0.4741943737556708 
0.1823624323329009 
-0.6919256466223482 
0.1823624323329009 
-0.009347249150805953 
-0.5450458426985558 
-0.1230860045818832 
-0.5051868839713415 
-0.001335589920058930 
0.2279306033692364 
0.1074207103162811 
-0.8741370707566711 
0.1074207103162811 
0.1074207103162811 
0.1074207103162811 
0.008040097503537715 
-0.7836408062179464 
-0.3254230754441100 
0.4998346036877512 
-0.003462662281533233 
0.4415339220094131 
-0.2402476204177891 
0.4415339220094131 
0.5334494543385762 
-0.4818783320633741 
0.5254828747300732 
-0.4905942102088032 
-0.4758288413413132 
-0.1471414584541584 
0.0008679307754770951 
0.0008679307754770951 
0.1659745258253582 
0.0008679307754770951 
0.7483601798109119 
-0.5233673452335493 
0.009335965788803040 
-0.1355198777102763 
0.009335965788803040 
0.8017538229179538 
-0.002232214022642017 
-0.04696174038982905 
0.3055588997367888 
-0.2598336431032058 
-0.2598336431032058 
-0.2598336431032058 
0.2041525414334996 
-0.2136798610933311 
-0.2136798610933311 
-0.1168962659667533 
-0.1168962659667533 
-0.4051138073422380 
0.2622020780495208 
0.0001764644957376901 
0.0001764644957376901 
0.1014202187047207 
-0.4698067399123570 
-0.2791793991761974 
0.3030668872568867 
-0.4764612582544350 
0.1178408531628437 
-0.5748372064186941 
-0.5947087044868601 
-0.2772942679083020 
-0.2772942679083020 
0.1021500739513821 
0.1021500739513821 
0.1021500739513821 
0.4815590329892294 
-0.08269326268811358 
-0.001321583589466000 
0.4899031392617313 
-0.3537989339729543 
-0.2032287206247936 
-0.0006820003333684989 
-0.08749913938154050 
-0.09314046464967625 
0.2777221055732370 
0.3995264419485775 
0.008858528324632230 
0.4242751356096838 
-0.1097451471560143 
-0.1100220873986781 
0.3027710186812685 
-0.06900988925123464 
-0.1908834840247632 
0.1802730809558186 
-0.0004001365626743435 
-0.0005853504079472733 
-0.3220393753659410 
-0.3220393753659410 
0.0002112065153576695 
-0.07030916185411444 
-2.277198016163823e-05 
-0.2054110082708062 
0.0004755629263593787 
-0.3595073589079816 
0.4998346036877512 
-0.2016516197743304 
0.03247768057680128 
0.03247768057680128 
-0.6154662738809962 
0.03181670578711717 
0.03181670578711717 
